1984 200
贝多芬 -0.001578 0.056818 -0.007975 -0.002203 -0.019635 0.003234 -0.000719 0.028590 -0.001174 0.016359 0.007988 0.012103 0.005683 -0.005373 -0.002542 0.009877 -0.001099 -0.006157 -0.001600 -0.002703 0.000970 -0.020416 0.011493 -0.001563 -0.007114 -0.002970 -0.003162 0.003531 0.005622 0.033265 0.007712 0.045331 0.001549 0.002788 -0.045415 -0.017203 0.021260 -0.001358 -0.001094 0.000084 0.005459 -0.023883 -0.001695 -0.000244 -0.002228 -0.070795 0.000841 -0.002815 0.009833 -0.014005 0.004062 -0.006547 0.000206 0.001993 -0.003326 -0.001541 0.035482 0.104876 0.028533 0.003812 0.022044 0.007816 -0.001971 -0.002757 -0.085418 0.014701 0.002338 0.012684 -0.004224 0.002541 0.020732 0.003909 0.003807 -0.003126 0.008459 0.050070 -0.005570 -0.009014 -0.000221 -0.004847 0.005954 0.007986 -0.031458 -0.096270 -0.005539 0.004906 0.012479 0.008166 0.038387 0.000273 0.004555 -0.000163 0.001728 0.004271 0.013814 -0.056562 0.001411 0.089506 0.006078 -0.000821 -0.003216 0.004406 0.019139 -0.010961 0.006701 0.002021 -0.006008 0.029168 -0.027552 -0.002186 0.020706 0.015116 -0.004462 -0.001555 -0.006180 0.022359 -0.002730 -0.007041 -0.001980 -0.056921 -0.059553 0.002410 -0.073303 -0.029941 -0.028348 -0.021842 0.007440 0.003010 -0.005811 -0.001361 -0.002158 -0.001782 -0.042724 0.005930 0.002986 -0.002705 0.014557 -0.000523 -0.000169 -0.017201 0.080274 -0.124261 -0.061775 0.031522 0.043914 0.021432 -0.004666 -0.009095 -0.003554 -0.017631 0.004579 -0.002645 -0.001317 0.002121 -0.006974 0.004977 0.334363 0.014974 -0.010681 0.002385 -0.003714 -0.009088 -0.037522 -0.015708 0.002268 -0.020898 -0.001067 -0.002554 0.000197 -0.007818 0.022732 0.002314 0.009776 0.001103 0.012082 0.002834 -0.002952 0.010642 -0.002902 -0.019974 0.209364 0.000603 -0.005009 -0.014953 0.002125 -0.002901 -0.000805 -0.000763 0.002629 0.010119 0.000367 -0.013986 0.009870 0.010353 -0.020831 0.010725 -0.038851 0.001746 -0.004845 -0.039278 
已婚 0.110110 -0.962802 -0.029774 0.045871 -0.093097 -0.015976 -0.062710 0.079869 0.107733 -0.066198 -0.114911 -0.104297 -0.050773 -0.123602 0.049689 -0.127631 -0.120470 -0.036632 0.002788 0.012901 0.010275 0.139853 -0.017461 0.001179 -0.174768 0.419846 -0.292042 -0.008127 -0.002023 -0.275518 0.241969 0.306148 -0.015258 0.044698 0.220717 -0.011251 0.259814 0.008308 0.028239 0.099826 -0.011971 0.128340 0.071554 -0.051602 0.098312 -0.099294 0.020513 0.109880 -0.115930 -0.040990 0.010187 0.026330 -0.033731 0.000237 -0.023545 -0.049853 -0.245778 -0.249701 -0.244341 -0.008081 0.336713 -0.042926 -0.063414 0.008880 -1.310817 0.008749 0.177690 -0.032222 0.375359 0.006540 -0.109494 -0.038140 0.003953 -0.031224 -0.015042 -0.104046 0.031837 -0.064836 0.027891 0.000261 0.054115 -0.039372 0.127907 0.368888 0.019260 -0.053519 -0.015188 0.167937 0.449725 -0.015109 -0.029971 -0.007567 0.046521 -0.064891 0.060253 -0.198330 0.015834 -0.166505 0.019359 0.036520 -0.061639 -0.223908 -0.068469 0.030771 0.106320 -0.019318 0.021268 -0.250190 0.130376 -0.009304 -0.512150 -0.074910 -0.102072 0.031446 -0.013543 -0.177257 0.026032 -0.049319 -0.000484 -0.083203 -0.121517 -0.059396 -0.572938 0.183320 0.416219 -0.747730 -0.070346 -0.065615 -0.255337 0.006673 -0.048788 -0.017465 -0.048534 0.035906 -0.097525 -0.056781 -0.131416 -0.019492 0.011269 0.031343 0.058115 -0.066369 0.509963 -0.208643 -0.505965 0.131288 -0.081237 -0.094480 -0.001936 0.090503 -0.007722 0.069316 -0.086981 -0.040613 0.474127 0.004573 -0.520455 0.444971 0.002610 -0.044387 0.043983 -0.117650 -0.033301 0.105049 -0.012262 -0.123310 -0.024275 -0.110276 -0.019709 0.080423 -0.118321 0.007469 -0.009192 0.002555 -0.006174 0.017055 0.020300 -0.284052 -0.967437 0.268410 0.909372 0.011976 -0.063186 -0.087112 -0.074002 0.045646 -0.041142 -0.010495 0.043698 0.081559 -0.011420 0.043315 0.253474 0.206584 0.030881 -0.480033 0.200745 -0.068407 0.043491 -0.456187 
刚果 -0.004224 0.020495 -0.002422 0.000185 -0.003884 -0.002199 0.013190 0.007558 -0.004500 -0.001817 0.007030 0.001692 0.002755 0.002490 0.020130 0.002497 -0.000734 0.002696 0.003151 0.000032 0.000979 -0.019380 -0.001969 0.000170 0.003723 0.002112 0.017513 0.003005 0.002276 0.014831 -0.042975 -0.009863 0.001808 -0.004379 -0.010853 0.001210 -0.004852 -0.000169 -0.005345 -0.003639 -0.001815 -0.010646 -0.000968 0.002357 0.005552 0.001272 -0.001944 -0.002996 0.004825 0.000530 0.003174 -0.002370 0.001190 -0.006592 0.001097 -0.003788 0.039937 0.027170 0.023116 0.000009 -0.001052 0.002714 -0.000310 -0.005206 0.030519 0.006688 -0.006346 0.000324 0.000892 -0.000336 0.006143 0.008445 -0.003098 0.001491 -0.001235 -0.006268 0.003385 0.001781 -0.005845 0.003092 -0.000677 0.003052 -0.007441 0.020350 -0.002431 0.002673 0.001211 0.017583 0.009431 -0.003747 -0.003939 0.006770 0.001323 0.008288 -0.001880 0.054907 -0.002100 -0.001927 -0.003247 0.000866 0.001047 -0.001922 0.011092 0.002283 0.000915 0.000421 -0.000548 0.006884 -0.000375 0.004576 -0.002395 0.002112 0.006191 -0.003164 0.005174 0.001984 -0.000891 0.003107 -0.000670 0.011392 0.012969 0.001065 0.021377 0.004950 -0.001345 0.033716 0.000855 0.002030 0.005668 -0.000910 0.001161 0.006145 0.003158 0.000239 0.015101 -0.002381 -0.000257 -0.000534 -0.003193 0.002321 0.024626 0.004177 -0.019530 0.006078 0.001632 0.000581 -0.001266 0.002614 -0.003960 0.001480 0.002617 -0.004767 -0.004298 0.000170 -0.001594 -0.002287 -0.004521 -0.003213 0.002607 0.000857 -0.005859 0.015140 0.021077 0.002162 0.000989 0.002362 -0.001918 0.002490 -0.000177 -0.002954 -0.005220 -0.001160 -0.001205 0.000698 0.003110 -0.000063 0.000489 0.019963 -0.012502 0.002322 -0.028358 0.001074 0.001868 0.001064 -0.001388 0.001321 0.002641 -0.001883 0.004907 0.002797 -0.003576 -0.003604 -0.002309 -0.003264 0.004014 -0.002759 -0.007433 0.004720 -0.002930 -0.004076 
颠倒 0.291309 0.166884 0.071990 -0.409261 0.518024 0.084884 0.057143 0.027704 -0.072940 0.215704 0.265059 0.251286 0.235187 0.062312 -0.031959 0.137650 -0.007160 -0.240235 -0.066714 -0.109333 0.922511 -0.082741 0.137809 0.008045 1.317149 -0.126024 0.203448 0.083848 0.170449 -0.890499 0.135200 -0.210300 -0.057888 0.097193 -0.439104 0.024790 -0.296007 0.149830 0.053741 0.052424 0.010632 -0.583350 -0.410734 0.191877 -0.444881 0.041241 -0.056651 0.055698 0.027566 0.259715 0.008264 0.033144 -0.131000 -0.005418 -0.943282 0.188793 -0.189226 -0.497498 0.052420 0.034381 -0.294330 0.011773 0.132562 0.231858 -1.947260 0.162395 -0.008841 -0.282401 0.268266 -0.252746 -0.376329 0.130373 -0.129704 0.073833 -0.163634 0.072420 -0.110015 0.036355 0.024549 0.064956 -0.033330 0.101939 -0.165077 0.274403 -0.049637 -0.297241 0.110460 -0.346363 -1.041427 -0.094245 -0.268908 0.179902 -0.028009 0.195173 0.614992 0.255276 -0.167586 -0.415549 -0.117005 -0.073263 0.083063 0.137419 0.395739 -0.209880 -0.017455 -0.201327 -0.083691 0.029389 -0.030624 0.130960 0.457916 0.147746 -0.442355 -0.006589 0.081129 0.106623 -0.075428 0.028812 -0.060318 0.311466 0.272612 0.215488 0.616735 -0.334982 -0.177013 0.260128 0.214124 0.052196 -0.148378 -0.001614 0.314152 -0.034545 -0.221262 0.221308 -0.152558 0.328505 0.136979 0.014859 -0.218344 -0.052308 -0.288722 -0.195175 0.705857 -0.054131 -0.413812 -0.018669 0.237838 -0.043735 -0.003426 -0.058269 0.047481 0.047383 0.034513 0.063754 0.120028 -0.006930 1.451419 -0.174773 -0.144553 0.170095 0.170512 -0.211287 -0.270371 -0.293633 -0.018963 0.109208 0.010934 -0.069523 0.140091 0.198183 0.211525 0.010990 0.072623 0.014760 -0.034245 0.115146 -0.016445 0.253861 -0.101509 0.129363 -0.828042 -0.170522 0.119579 0.101994 0.123983 -1.066552 0.096958 0.109700 -0.309477 -0.217282 0.118604 -0.111832 -0.073495 -0.419907 -0.294485 0.217415 -0.044649 -0.000226 -0.058996 -0.064095 
基于 -0.042212 1.479664 -0.036188 -0.089647 -1.718007 -0.210720 -0.204452 -0.120086 0.179139 0.398110 0.262065 -0.528547 -0.091842 -0.056079 0.145246 0.016616 0.055631 -0.155568 0.097816 0.042671 0.154761 0.871891 0.102554 -0.403541 -0.256374 -0.238294 -1.321194 -0.030276 0.178929 1.507177 0.612762 0.555196 -0.000804 0.255738 -0.743538 0.088278 0.487367 0.043103 0.019077 -0.030339 -0.044006 0.100716 0.575585 -0.018728 -0.781778 -0.066711 -0.006325 0.173482 -0.096826 -0.357931 0.024822 -0.694888 -0.005295 0.048393 -0.316871 -0.317926 -0.047589 -0.051056 -0.228510 -0.004822 0.037212 -0.015984 -0.187505 -0.018222 3.031896 -0.145938 0.005678 0.082812 -0.201952 0.009670 0.079028 -4.040363 -0.136054 -0.002876 -0.072925 -0.065051 0.053682 -0.481830 -1.004803 -0.112497 0.169145 -0.110420 -0.335188 -0.508897 0.151320 0.002893 -0.054152 -0.467460 -0.449805 0.050406 0.204077 0.409321 0.054300 -0.424213 0.481302 0.569193 0.292123 -0.380583 0.081847 0.128986 -0.143394 -0.491553 -1.492978 -0.128870 0.287197 -0.175311 0.103816 1.266051 0.389398 0.008721 -0.427940 -0.976339 1.733993 -0.040311 0.033603 -0.094746 0.016066 -0.255506 -0.001142 0.298842 0.215097 -0.066312 -0.429274 -0.297119 -0.211075 0.233381 -0.337064 0.188833 -0.472391 0.236968 0.342742 0.291037 0.551290 -0.027925 -0.052974 0.230073 -0.047675 0.025800 -0.086320 0.306160 -1.484625 -0.201130 -0.145525 0.147661 -0.076039 0.053389 -0.399151 -0.359363 -0.029447 0.460866 0.066541 0.153905 -0.562455 0.110664 -0.130338 -0.384830 3.162823 0.246901 -0.052131 -0.072781 0.323231 -0.250872 -0.132723 0.170603 0.034897 0.745305 0.074779 0.358812 0.029431 0.150271 0.557936 0.093109 0.274373 -0.009059 -0.041445 0.018431 -0.079549 0.140674 2.423129 -0.099090 -0.200788 -0.157491 -0.377616 -0.080084 -0.261459 0.043681 0.049637 -0.006639 0.026810 -0.309161 -0.046196 0.060080 -0.747042 0.281137 -1.033773 0.580354 -0.055270 -0.115367 -0.010658 -0.567662 
期望 0.185397 0.319659 -0.526829 0.077131 -0.384144 0.570955 0.204627 1.785729 -0.039312 0.127835 0.369463 0.256801 0.235705 0.150751 0.064223 0.091322 -1.684715 -0.104081 0.167866 0.102943 -0.018951 -0.448387 0.439682 -0.223211 -1.249611 0.825755 0.112353 0.212306 0.011676 1.465112 -0.080426 -0.244902 0.180405 0.562739 -0.293757 -0.172431 -0.074627 0.176652 -0.219935 -0.309453 -0.070698 -0.626373 -0.358347 -0.001652 0.908522 0.054471 -0.338187 -0.257260 0.228901 0.294728 0.038465 0.020729 0.523300 0.019108 0.078585 0.223641 0.154363 0.750491 0.088191 -0.093032 -0.098125 0.375121 -1.308573 0.037634 -1.109120 0.758158 -0.463355 -0.421211 0.062386 -0.004661 -1.030609 1.453448 0.154530 0.414317 0.063004 -0.145834 -0.068365 0.220761 -0.585875 0.368257 -0.062133 0.122921 -0.577496 1.002891 0.027210 -0.149465 0.267323 0.985892 0.832429 0.077871 -0.647647 0.243767 -0.228444 0.306152 0.262336 1.119220 -0.173997 0.183995 -0.229825 -0.295345 0.501114 0.353587 0.038358 -0.151712 0.192648 0.106905 -0.146978 0.240448 0.055402 -0.001525 0.279842 -0.279090 -0.341182 -0.120991 0.114067 1.024286 -0.080466 0.331194 0.057946 -0.013423 0.580993 0.051914 -0.006581 -0.127445 -0.426016 0.382747 0.229373 0.484808 0.127039 -0.194565 0.473194 0.075778 0.778140 1.055105 0.241466 -0.338789 0.181410 -0.087131 -0.210603 0.372022 1.686040 0.159302 -1.019731 0.365498 0.426598 0.300812 0.312157 0.134770 -0.016507 -0.331456 -0.288610 -0.858576 0.477925 -0.034336 0.872595 -0.109398 3.980606 -0.786804 0.100489 0.252388 1.219055 0.000164 0.936005 -0.358860 0.112471 -0.346800 -0.041707 0.854932 0.229932 0.120830 0.313464 0.005724 -0.206634 0.010357 -0.114701 -0.232861 0.102422 -0.324900 -0.739294 0.104237 -0.307120 0.219703 0.241084 0.104721 0.281140 -0.405253 0.038223 0.178709 -0.256934 0.806511 -0.225809 -0.011708 0.102213 0.708096 0.245476 0.278356 0.541359 0.117281 -0.225928 -0.994286 
定向 -0.853341 0.001083 0.476841 0.528503 -1.938340 2.828665 -0.015286 0.046575 -0.000629 0.005621 0.035285 -0.008296 -2.004736 0.001007 0.003419 -0.777271 0.306696 -1.168084 -0.000117 -13.229568 0.999950 -0.007470 0.222801 0.000003 58.501873 -0.000490 -1.719067 -0.021064 -0.000181 -7.025566 1.979335 2.215024 0.001940 0.007287 2.984153 -0.029535 1.911989 -0.026144 0.096215 0.353757 0.000622 -0.001116 0.005315 -0.000474 -0.866333 -1.729775 -0.220493 0.000790 20.150171 -0.836249 0.662506 -1.321368 -0.003172 0.015745 -0.637639 -2.093649 -1.083738 -3.853155 -1.313301 0.563112 0.000627 0.001693 -1.285060 -9.716397 -0.736136 0.000877 0.030156 -0.000375 0.003399 -0.029766 0.000601 3.526430 0.793491 1.620784 0.736890 -0.002498 0.994298 0.001122 -0.002454 0.000178 -0.002164 7.458703 1.680622 0.049439 1.040504 0.014823 1.775354 0.010458 -4.830216 0.968978 -0.001126 2.424894 -0.001664 52.105106 -0.906059 -4.740392 -0.736007 0.040100 -0.003831 -12.343277 -0.231152 -2.120993 0.000664 19.668657 0.005139 -1.674573 0.000815 0.447509 0.069066 10.542916 10.595451 -1.947911 -0.010405 -0.026263 1.530848 -2.020912 0.616163 0.005968 -1.714194 -0.001950 0.123338 0.001888 0.043199 0.495939 -0.000096 -4.749327 -0.819413 -0.919119 0.000879 -0.818339 4.177289 -1.058304 0.007721 -1.301682 -0.000077 0.030106 -1.266160 0.015526 0.119502 -0.001934 1.821331 -2.543689 3.455093 -0.000079 -2.388365 0.792006 0.007652 15.999987 0.444619 -0.001248 -0.000353 -0.149505 -1.135326 5.368239 1.363721 0.953898 0.577862 3.249253 -0.001567 1.202229 0.005428 -1.670987 -0.498634 0.615345 0.003502 -0.879015 0.002640 0.816582 0.001153 -0.000504 -1.036744 0.982313 -32.094906 0.000462 -5.123782 -0.074486 10.709556 -0.355719 1.461344 0.004171 -0.162047 -0.852848 -0.000283 0.001747 0.006601 -0.622182 -0.728424 0.792348 -11.878800 -0.547264 -0.000677 -0.000456 2.177799 -0.972960 0.009945 -2.317805 0.121359 0.020894 -0.000619 3.532329 
圆 -0.122618 0.783947 -0.060597 0.260990 0.701495 -0.606728 -0.263915 -0.071803 0.264686 -0.159693 -0.928866 0.083352 -1.455391 0.252526 0.805437 -0.016138 -0.309257 -0.010500 0.059969 0.318576 0.473638 0.451443 -0.200262 -0.068293 0.356215 -0.083806 0.619684 -0.118031 0.188059 -1.973926 2.606809 1.042004 -0.383508 -0.181813 1.201625 -0.147814 -0.224771 0.038747 0.178823 0.456501 -0.080953 0.231854 -0.246062 -0.400516 0.860831 0.740021 0.400007 -0.109557 -0.111437 -0.146367 -0.038852 -0.131462 0.065875 -0.101812 -0.334750 -0.123157 1.317275 -0.501713 1.330083 0.002135 -1.118065 0.088191 -0.699474 -0.391818 -0.225333 -0.094209 -0.027170 -0.088300 -0.835584 0.053915 0.805842 -0.063914 0.574587 -0.037602 1.078185 -0.165164 0.090115 -0.291450 1.676975 -0.186252 -0.016227 0.217542 0.716330 0.717148 -2.448955 1.214763 -0.214349 -0.976989 0.024574 0.059182 0.416962 0.493509 0.051596 -0.182051 0.089227 0.072835 -0.053077 0.433124 0.724498 0.017932 -0.249832 -0.100581 -0.077586 0.031287 0.550352 0.434638 -0.039598 -0.083627 -1.194730 0.061146 0.085013 -0.141616 0.134259 0.092598 0.392210 0.801146 0.042619 0.328999 0.084724 0.896043 0.926075 -0.056678 0.721117 -0.385992 0.512042 -1.250797 -0.276386 0.069785 0.011831 0.075301 -0.438508 0.247406 0.927643 -0.106002 -0.049537 0.113181 -0.448888 0.005835 -0.700915 1.482220 -1.114866 0.733649 0.430924 0.080815 -0.254554 -0.186554 -0.777583 -0.265739 0.513911 -0.242267 -0.093011 -0.330645 0.058804 -0.088317 0.761660 0.199208 -0.147476 -0.032031 1.947345 -0.081076 -0.526716 -0.503539 -2.721245 -0.053625 0.078280 0.378027 -0.077809 -0.454404 -0.473235 -1.609518 -0.219585 0.544340 0.538955 0.191252 -0.210310 0.212923 -0.215904 0.304945 -1.788591 -0.076483 -0.910511 -0.032781 -0.231894 -0.255997 -0.586020 0.012105 -0.377636 0.021367 -0.515305 -0.329642 -0.031313 0.281002 0.500218 0.247323 0.147025 -0.298329 -0.274414 -0.108071 0.027584 0.952906 
性别值 0.000253 0.005021 -0.002627 -0.001105 -0.002299 -0.001520 0.030496 -0.007564 -0.000089 0.002852 -0.006191 0.004178 0.020896 -0.001768 0.019261 0.002830 -0.001696 0.000214 0.001231 -0.000415 -0.000474 0.004007 -0.000938 -0.006234 -0.000779 -0.001891 0.001918 0.000106 -0.002899 -0.015592 -0.004095 -0.003116 0.000129 -0.000507 -0.001651 0.000230 0.006329 -0.004529 -0.001786 0.003063 0.000807 -0.004476 0.002545 0.000083 0.003110 0.005320 -0.001854 0.001019 0.000769 -0.002375 -0.001966 0.000973 -0.012543 -0.001535 0.003802 0.010365 0.061126 0.015933 0.003821 -0.000851 -0.017149 -0.001586 -0.003217 -0.000241 0.015882 0.006988 0.001933 -0.000953 0.009548 0.001007 0.003792 -0.000834 0.002761 0.001580 0.002503 -0.001376 -0.001564 0.001840 0.002497 -0.000946 -0.008018 -0.002818 -0.000905 -0.006799 -0.000595 0.001109 0.001131 -0.001770 -0.017705 -0.002966 0.000906 0.002522 0.000227 0.006764 0.014717 -0.014294 0.000703 -0.008580 0.000248 -0.000924 -0.001461 0.032541 -0.004851 -0.003627 0.005786 0.004332 0.000985 0.005622 -0.000481 -0.001653 -0.000906 0.005676 -0.000621 0.000955 0.002612 -0.000319 -0.002679 0.002705 -0.000395 0.000011 0.004866 -0.000850 -0.002693 0.000099 0.005298 0.005998 -0.001958 -0.001041 -0.003832 0.001898 -0.003126 0.001187 -0.001384 0.016482 0.000547 0.002919 0.003693 -0.000183 -0.003023 -0.001309 0.007996 0.035418 0.021601 0.000502 -0.000142 -0.007596 0.000448 -0.001247 -0.002993 0.003173 -0.000133 -0.000696 -0.006210 0.000089 -0.001494 0.001734 -0.039599 -0.001907 0.000892 -0.000633 -0.002292 0.015928 -0.010161 -0.003982 0.001189 0.001144 0.001181 -0.000106 0.001174 -0.001285 -0.005719 0.001007 -0.001717 0.002227 0.000298 0.001345 -0.001537 -0.002454 0.005132 0.002604 -0.032542 -0.000224 -0.001136 -0.002574 -0.000878 -0.000805 0.004354 -0.001663 0.000171 0.000740 -0.000590 0.002325 -0.002819 -0.009097 0.000167 0.001950 0.001567 -0.000205 -0.001831 -0.009254 
纷乱 0.333776 -1.259673 0.213543 -0.023474 -0.395971 0.102867 0.160889 0.207953 0.025573 -0.084877 0.248636 0.651109 0.396683 -0.093070 1.629793 -0.079530 0.051522 0.034988 0.101131 -0.007109 0.115377 -0.261057 0.008054 0.032966 -0.270154 0.072408 -0.523304 -0.059599 0.090232 -1.535561 0.260206 -0.152806 0.121920 0.029764 -1.046600 -0.011997 -0.569948 -0.010657 -0.145944 -0.125118 -0.110101 0.050071 -0.217385 0.162621 0.450436 -0.272457 -0.078509 -0.057351 0.398672 0.320336 -0.012020 -0.110743 -0.297972 -0.229563 -0.166094 0.161150 -0.654849 0.108769 0.280653 0.000426 -0.161929 0.033983 0.095406 -0.282055 -0.768737 0.053552 -0.114699 0.012663 0.066657 -0.128885 -0.057215 -0.023329 -0.014603 0.053318 0.111036 -0.056997 0.070603 0.094491 -0.332437 0.173720 -0.121847 0.367208 -0.092577 -0.070043 -0.079850 0.239438 0.223774 0.499189 1.658226 0.071733 -0.065630 0.163058 0.014676 -0.129464 0.130944 -1.227161 -0.068558 0.354257 0.327233 -0.039533 0.201211 0.631360 -0.304390 -0.002067 0.278023 -0.281245 -0.140606 0.538664 -0.234893 0.129492 0.215558 0.052260 -0.271949 -0.101231 0.256566 -0.502267 -0.072847 0.242640 -0.035953 0.123459 0.861657 -0.026859 0.387417 -0.611128 0.265814 0.057353 0.001319 0.167710 0.044643 -0.093475 -0.093400 0.060733 -0.416742 0.680304 -0.025477 -0.587010 -0.036219 0.199096 -0.213134 -0.084625 0.216385 -0.068579 0.773176 0.021336 0.308511 0.071721 -0.016566 -0.100606 0.284964 -0.155994 -0.034281 -0.171501 1.099764 0.095235 1.004743 -0.033717 1.777370 0.909092 0.020863 0.088113 0.119237 0.011075 0.724577 0.015003 -0.016061 -0.073955 0.075653 -0.698607 0.002697 0.240243 0.589693 0.143366 -0.766024 0.111067 -0.262197 0.156189 0.236062 -0.051514 -0.590436 0.000115 1.255623 -0.207260 0.237098 0.173701 0.176965 -0.422836 0.019702 -0.059039 -0.211059 0.283409 -0.115244 -0.393502 0.029460 0.120821 0.076380 0.857420 -0.578716 0.125925 -0.086892 -0.000647 
死 -0.041389 0.394602 -0.750106 -0.100440 0.297460 0.003238 0.002290 0.509225 -0.171537 -1.005664 0.021635 0.415466 0.509052 0.158610 0.238651 0.480379 0.401164 -0.041920 -0.042361 -0.422419 -0.078826 -0.125126 0.212509 1.398388 0.438285 -0.910934 0.953732 -0.041282 0.141685 0.130809 -1.370213 0.683828 0.043007 0.040270 -0.311140 0.139348 -0.065293 -0.029797 -0.371641 -0.083936 -0.186785 -0.164315 -0.261514 0.138057 -0.487798 0.025747 0.035493 -0.286779 -0.009251 0.443085 -0.067763 0.008630 -0.031288 -0.015132 0.005259 0.320488 0.548444 0.228264 0.053263 -0.003503 -0.326343 0.059980 -0.070394 0.178144 3.651343 0.213581 -0.621822 0.075272 0.068936 0.217129 -0.433418 -0.179033 -0.465924 -0.160328 0.208214 -0.069276 -0.216121 0.206462 -0.132525 0.552887 0.538617 0.093452 -0.086098 -1.966548 -0.014976 0.389071 0.055972 0.939646 -0.052856 -0.038494 -0.122146 -0.220378 -0.110651 0.519165 -0.841667 0.132271 -0.231556 0.356177 0.005757 -0.098795 0.188837 0.665403 0.217944 0.141120 0.017563 0.170520 -0.063087 -0.271862 -0.843875 0.105338 0.203541 0.481823 0.029845 0.069572 -0.048852 0.298908 0.165050 0.413515 0.032028 -0.628135 0.148396 0.097542 0.531735 -0.252407 -0.348666 -1.774157 0.106445 -0.261759 0.198668 -0.062557 0.347653 0.313807 -0.623289 0.027656 -0.306463 -0.069720 0.490861 0.046143 -0.401200 -0.275489 -0.006707 0.259163 -0.055874 0.439215 0.073785 -0.061470 0.348827 -0.133536 0.166223 -0.210177 0.035954 -0.119385 0.116251 0.232308 0.390542 -0.167173 0.487881 -0.382640 -0.277788 0.025186 -0.553029 0.013600 0.310479 -0.223167 -0.137846 1.065069 0.068862 -0.071353 0.105412 0.082953 0.438887 -0.130686 -0.098533 0.006835 0.194080 0.249930 -0.017668 -0.035424 0.433692 0.561943 -1.406528 0.312272 0.140213 0.104732 0.085965 -0.083416 -0.042865 -0.072310 -0.247697 0.190192 -0.072559 -0.146138 0.665853 0.033326 0.119032 0.114925 0.657755 0.033481 -0.006044 0.835194 
歹 0.092286 0.892987 0.422292 -0.028059 0.399685 0.561984 0.280383 2.357887 -0.199974 -0.151114 0.940446 1.003126 0.320539 0.170010 1.461599 0.369018 0.547614 -1.001553 1.012556 -0.077751 0.496241 -0.974324 -0.712599 0.049406 2.354961 1.318783 -0.242377 0.058995 -0.018238 -1.079120 -0.807409 0.317283 0.071147 0.232721 0.023568 0.324855 -0.355076 -0.010630 -0.548055 -0.026794 -0.339691 -0.630139 -1.839598 0.004608 0.356989 -0.312469 -0.232500 -0.002696 0.771540 0.768012 0.099985 0.054242 -0.514957 -0.182378 -0.000614 -0.354779 -0.415794 -1.136711 -0.584041 -0.207028 -0.391385 0.121805 0.137772 -0.642800 -1.821192 0.871221 -0.379236 0.043652 1.653703 -0.651218 -0.772290 0.349442 1.021604 -0.074819 -0.061162 -0.220957 -0.366896 0.459036 0.249528 0.300023 -0.257337 -0.123201 0.105042 0.368314 0.062098 0.071094 1.209312 0.269383 -1.261598 0.088769 -0.445587 0.226625 0.180075 0.076641 1.034613 -0.195856 0.217469 0.479227 -0.141531 0.078917 -0.224198 0.405807 0.728843 -0.519581 1.138711 0.311637 -0.023186 -0.404368 0.569909 0.432068 0.082108 0.450618 -0.921820 -0.700522 0.139622 -0.350674 -0.157054 0.937317 0.012868 -0.489155 0.053065 0.379075 0.404993 -0.578261 -0.511495 -0.126820 0.391313 -0.575570 0.362712 -0.133360 -0.112786 0.478940 -0.382195 -0.363642 0.110468 -0.578963 0.315451 0.045181 0.601835 -0.065707 0.473176 0.844532 0.713812 0.010547 -0.430495 -0.168257 -0.272758 0.326856 -0.006200 -0.230729 -0.157312 -0.232275 1.324581 0.148697 -0.080472 -0.323640 2.981693 0.586473 -0.805395 0.120988 1.622301 -0.122166 0.796456 -0.348623 -0.114209 0.045100 0.188941 -0.197844 0.093223 -0.025342 0.248541 0.274538 -0.226399 0.204309 -0.325978 0.039575 0.389530 0.007485 -2.637295 0.778183 0.278719 -0.167781 0.445146 -0.111966 0.151288 -0.646345 0.326286 0.547152 -0.231611 0.072874 -0.023036 -0.149328 -0.063072 -0.456720 0.095830 0.174864 -0.157823 -0.035644 -0.224618 0.272665 
合理 -0.199271 2.341163 0.020646 0.008793 -0.060818 -0.306321 -0.101810 -0.110340 0.051926 0.098118 -0.348540 -0.038996 0.133716 -0.364769 0.453001 0.046103 0.142650 -0.049543 0.013528 0.121163 -0.072604 0.061497 -0.087260 -0.294186 0.027258 -0.195236 0.275411 0.098018 -0.056568 -0.319118 -0.437970 0.437804 -0.063022 -0.115109 0.673913 -0.130962 0.096218 -0.034458 0.149145 0.109790 0.150722 0.096416 -0.063772 -0.024426 -0.145772 0.142126 -0.044785 0.069036 -0.039918 -0.075647 0.038974 -0.012826 -0.082587 0.080462 -0.058804 0.018654 0.232552 -0.298666 0.385516 -0.104327 -0.441459 0.006511 0.036366 0.076124 1.595082 0.009856 0.060591 0.131084 -0.518204 -0.048018 1.068356 -1.436565 0.087015 -0.188610 -0.088698 0.370786 -0.185387 -0.042293 0.401640 -0.120013 0.012845 0.065633 -0.363621 -0.435879 -0.085541 0.005021 0.198323 0.104714 0.465322 0.104370 0.183257 -0.131609 0.059289 0.005264 -0.265840 -0.584834 0.131863 0.068177 -0.069769 0.042310 -0.160799 0.052666 0.000917 0.007058 -0.147604 1.280435 0.091243 -0.612415 -0.171253 -0.021305 0.156119 0.450257 -0.010492 -0.066153 0.058354 -0.179667 0.130230 -0.180578 0.083233 0.954207 -0.317705 0.040247 0.469976 0.371554 0.129531 0.132085 -0.161844 -0.009034 -0.064178 -0.012811 -0.047181 -0.075963 -0.152039 -0.063889 0.149523 0.158649 -0.044687 -0.011734 0.118066 -0.389728 0.230976 0.015177 -0.236377 -0.145230 -0.041967 0.060927 0.139936 0.077976 0.132953 0.016062 0.012501 0.155079 -0.290565 0.065739 -0.934512 -0.233204 -2.616428 -0.375340 -0.072763 -0.059517 0.079772 -0.177335 -0.464681 0.742682 0.006697 -0.395577 0.135205 0.392873 -0.050945 -0.097400 -0.082014 -0.008717 0.515101 -0.011022 0.332925 0.266047 -0.150719 -0.552013 0.243620 -0.349210 -0.408715 -0.118190 -0.300278 -0.085345 -0.250383 0.144974 -0.059767 -0.032258 0.001088 -0.197084 -0.060322 -0.039347 0.200370 -0.271221 -0.091407 0.027813 -0.194010 0.001844 -0.063953 0.668150 
难看 -0.186379 0.072943 0.061703 0.011407 -0.304613 -0.119732 -0.118371 0.151727 0.116565 0.161364 -0.106171 -0.327338 -0.192610 -0.242560 -0.109469 -0.026609 0.274734 -0.007138 0.046762 0.014711 0.019822 0.055598 -0.046602 -0.055748 -0.139282 0.137906 -0.304038 -0.116058 0.002078 0.103674 -0.050618 -0.013873 -0.057268 -0.089390 0.416851 -0.140986 0.279652 -0.002064 0.110817 0.060535 0.033517 0.219885 0.192800 -0.123936 -0.206895 -0.154236 0.054318 0.104826 -0.207360 -0.039346 -0.052813 0.153887 0.166752 0.067114 -0.026511 -0.181422 0.015685 -0.150497 -0.234584 -0.035202 0.174330 -0.038729 -0.036394 0.212164 1.143008 -0.073308 -0.031735 0.205855 0.008680 0.021838 0.108433 -0.052888 0.114402 -0.038473 0.002902 0.054656 0.131783 -0.195809 0.260660 -0.004487 0.010965 -0.097896 0.191346 0.029073 0.027580 -0.090225 -0.016588 -0.022380 0.400427 -0.035123 0.167734 -0.142078 0.007034 -0.122945 -0.103777 0.062747 0.081952 0.107524 0.032482 0.126195 -0.084358 -0.298390 0.001723 -0.123298 -0.104984 0.023644 0.021904 0.109367 -0.142459 -0.102420 0.227016 -0.012196 -0.097502 0.140199 -0.010490 -0.128031 0.026389 -0.137550 0.041865 -0.514364 -0.719135 -0.068326 0.012266 0.175467 0.241192 0.443766 -0.109781 -0.139164 0.079815 0.001144 -0.116646 -0.024340 0.454271 -0.323078 -0.140047 -0.156424 -0.068541 -0.057166 0.144374 0.006826 -0.284981 -0.180005 0.470372 -0.416622 -0.028111 0.128855 -0.187843 0.117215 0.071100 0.025658 -0.018536 0.050156 -0.261614 0.009634 -0.440015 -0.021773 -2.404219 0.124991 0.048788 -0.015623 0.201537 -0.142658 -0.291293 0.499625 0.026598 0.058798 -0.037936 0.096534 0.036222 -0.225326 -0.237484 0.006163 0.182831 0.002119 0.037510 -0.013477 -0.092474 -0.339369 -0.340743 0.022115 -0.557757 -0.055771 -0.044146 -0.162532 -0.140272 0.163664 -0.160792 -0.036074 0.233067 0.032978 -0.125397 -0.058422 0.169449 -0.228202 -0.064891 -0.487636 0.118286 -0.120989 0.051775 -0.695127 
飞行器 0.228529 -0.625703 -0.160161 -0.249800 -0.126232 0.272487 0.458142 -0.370535 0.272917 -0.253053 0.159022 -0.354827 -0.273017 -0.051347 0.244156 0.089961 0.038220 0.692771 -0.369718 -0.073537 -0.052533 0.023039 0.096088 0.172047 -2.048811 -0.293132 0.728107 0.077674 -0.228154 -0.056724 0.629685 -0.257436 0.187149 0.044412 -0.317006 -0.105233 -0.694051 -0.050619 -0.387614 0.058591 -0.092754 0.139266 0.141465 -0.067114 -0.031786 0.843389 -0.034775 -0.226936 0.074495 -0.348172 0.070490 0.303118 -0.071033 0.030084 -0.023542 -0.340597 0.338518 -0.821571 -0.056253 0.182095 -0.218132 -0.091999 0.206172 -0.286252 -3.039901 0.136624 -0.150373 -0.114190 0.296075 -0.124535 0.398261 1.108407 -0.430575 0.062649 0.020057 0.163949 0.095821 0.184148 -0.057228 -0.227079 0.231461 0.126671 0.317455 -1.154969 1.167506 -0.423734 0.105248 0.297205 1.657942 0.046001 -0.060605 -0.063271 0.011590 0.092156 -0.117956 -1.452299 -0.071755 -0.013916 -0.307851 -0.117646 0.094865 -0.784417 -0.024428 0.190873 -0.316004 -0.179404 -0.152572 -0.473399 0.686173 0.020579 -0.336357 0.159153 -0.329981 -0.108435 0.060052 -0.024495 -0.223074 0.044681 0.003883 0.979306 0.615778 0.018150 0.528369 -0.057921 0.140777 1.152999 0.049684 -0.082322 0.250165 -0.169818 0.067414 0.331410 0.104645 -0.403277 -0.123096 0.078936 -0.270122 0.042889 0.064510 0.081964 1.057640 -1.014108 -0.578470 1.021416 -0.437858 -0.200890 0.045251 0.058530 0.470500 0.141912 -0.090669 0.177557 -1.280827 -0.041125 0.395602 0.353694 0.012269 -0.073531 -0.088125 0.009420 0.394043 0.052470 -0.011567 0.571304 -0.066095 0.000366 -0.065270 0.618071 -0.182134 -0.370878 -0.180245 0.186120 0.037342 -0.034286 -0.099430 -0.394286 -0.074273 -0.286783 -1.183241 -0.602153 -1.090625 -0.380130 -1.587850 -0.046911 0.227281 0.465662 0.079627 -0.162772 -0.006505 0.083966 -0.314671 0.107815 -0.469034 -1.133356 0.653330 -0.208966 0.414984 0.176120 0.054034 0.407447 
歪 -0.094926 -0.978555 -0.056285 -0.011118 0.178535 0.185211 -0.235528 0.673675 -0.212654 -0.164372 0.499889 0.165433 0.803595 -0.029754 0.400572 0.276495 -0.251925 -0.423715 -0.094231 -0.034101 0.102344 -0.035360 -0.008314 0.101949 0.368164 -0.152504 0.012096 0.013118 0.133814 1.082752 -0.318756 -0.191429 0.000400 0.100161 -0.199409 -0.031105 -0.076906 0.068920 0.002776 -0.008732 -0.013371 -0.095487 -0.316534 0.053508 0.089056 0.304089 -0.065153 0.553340 -0.213594 0.096612 0.019424 -0.042942 -0.214373 -0.052468 -0.016219 0.226951 0.700422 1.141340 0.197326 -0.083321 -0.125581 -0.090575 -0.013815 -0.013219 -0.956725 0.179284 -0.085212 0.367202 0.007758 -0.130272 -0.064622 0.151230 -0.742485 0.013737 0.061864 -0.209195 -0.041992 0.162658 -0.510922 -0.045198 0.024635 0.043187 -0.122726 0.286685 -0.033047 0.035897 0.077067 -0.106469 1.240145 0.038707 0.036209 0.124536 0.026183 0.203668 0.493640 0.499094 -0.009335 0.401306 0.016816 -0.092760 -0.025625 0.207108 0.249015 0.037139 0.056536 -0.125053 -0.031247 0.052070 0.009667 0.087075 0.310951 0.015574 -0.456238 -0.134722 0.002556 -1.506347 -0.259264 -0.190580 -0.080534 0.492211 0.164492 0.124357 0.041567 -0.086956 0.229644 -0.637726 0.022274 0.073499 -0.193541 -0.027303 0.062450 0.059692 -0.339449 -0.115748 0.270027 0.208521 -0.051103 0.050490 -0.205329 -0.022496 -1.137511 0.554141 -0.182644 -0.315693 0.256795 -0.035830 0.250942 0.236015 -0.058646 -0.442204 0.050343 -0.034851 0.260746 -0.113749 0.780581 -0.054495 1.969566 -0.138002 -0.239755 0.018438 0.002835 -0.070556 0.456180 -0.519011 -0.003824 -0.129977 0.069020 -0.294948 0.072516 -0.019844 0.059616 -0.188692 -0.118791 -0.050593 -0.024606 0.220113 0.027420 0.383593 -0.099454 0.519821 -0.992415 0.091650 0.073602 0.014894 0.162535 -0.134869 0.027008 0.037123 -0.034769 0.203679 -0.015994 0.104447 0.053162 0.614513 -0.246252 0.178651 -0.516862 -0.004943 0.197428 -0.389502 
废物 -0.175578 -0.764873 0.079937 0.118476 -0.008553 -0.059359 -0.017052 -0.249596 0.048080 -0.252107 -0.377444 -0.007531 -0.425524 -0.327652 -0.077914 -0.303531 0.062817 -0.041647 -0.152257 -0.064181 0.019163 0.143734 -0.108695 -0.036134 -1.063443 -0.114918 -0.011665 0.035433 0.001653 0.446445 0.700909 -0.470392 -0.004939 0.001295 0.453572 0.109198 0.329261 0.001596 0.003418 0.130451 0.072200 0.255770 -0.101306 -0.017734 -0.085726 -0.158540 0.013647 0.060292 0.011771 0.146062 0.060652 -0.064517 0.074739 -0.037318 0.188984 -0.273733 -0.202397 -0.636163 0.151442 0.001613 0.438259 -0.014514 -0.098970 0.145705 2.408415 -0.310293 -0.161235 0.345855 0.304875 -0.002421 0.064187 -0.114680 -0.024637 -0.013021 -0.054977 -0.388578 0.004555 -0.014993 -0.050836 -0.252458 0.004123 -0.072416 0.147425 0.159237 0.029385 -0.028012 -0.022978 0.095844 -0.166882 -0.058758 0.030231 -0.096905 0.010108 -0.124707 -0.042032 -0.392978 -0.011236 0.463127 -0.028656 -0.017007 0.056377 -0.220171 0.378031 -0.079789 0.077535 0.059245 0.019297 0.056547 0.056363 -0.149539 0.058952 -0.046727 0.169948 0.002771 0.103778 -0.024160 -0.025458 0.057482 0.051968 -0.749823 -0.045486 -0.153945 -0.119163 -0.007168 0.154388 0.374185 -0.098629 0.040999 -0.003480 -0.047593 -0.168523 -0.005021 0.005369 -0.036119 -0.020963 -0.084634 -0.256445 -0.012668 -0.011762 -0.018948 -0.362123 0.164118 -0.078114 0.088619 0.027136 0.124858 -0.076689 0.213425 -0.058115 -0.079241 0.031800 0.077619 0.083427 -0.113075 -0.429525 -0.024171 -1.717885 -0.186862 -0.004734 -0.114028 -0.446511 -0.180866 0.423218 0.448994 -0.020214 0.091677 -0.148582 0.382792 -0.035770 -0.010509 0.014024 -0.128399 -0.037409 0.066652 0.142223 -0.016995 0.033203 -0.302634 0.539829 -0.129013 0.326275 -0.097148 0.163108 -0.091004 -0.082964 0.241865 -0.115493 -0.127354 0.213384 -0.145191 0.011599 0.042851 0.194699 -0.181671 0.076270 -0.324652 0.110181 -0.043322 -0.018930 0.345235 
正 0.010396 -0.362538 0.054862 -0.043991 0.160114 0.058624 0.114469 0.029599 0.091674 -0.203831 0.038688 0.111789 0.118705 0.095552 0.096564 -0.008411 0.150604 -0.110515 -0.087405 0.001696 0.037961 -0.023790 0.049467 0.074182 0.122474 -0.119767 0.288981 0.059906 0.023572 0.193094 0.067319 -0.017241 0.072360 0.078049 -0.001377 -0.003194 -0.056308 -0.013830 0.002904 -0.040112 -0.011814 -0.053762 -0.086004 0.042585 0.033078 0.093811 -0.031461 0.071479 0.134047 0.042415 0.007825 -0.059845 -0.069852 -0.007077 -0.058663 0.044207 0.151855 0.352131 0.129799 0.048338 -0.007113 0.015200 0.003218 -0.002526 -4.305611 0.429914 -0.077377 0.023710 0.080602 -0.032158 -0.358002 0.029936 0.156950 0.075662 0.057566 -0.064087 -0.065982 -0.031825 -0.128925 0.002214 -0.024645 0.027156 -0.037857 0.477755 0.026865 0.062463 0.066396 0.151799 0.108326 0.018171 -0.002253 0.018629 0.033575 0.015798 -0.009924 0.065460 -0.071713 -0.173229 0.010771 0.001272 -0.000674 0.329110 0.153457 0.000937 0.070704 -0.008282 -0.017158 -0.117365 -0.235778 0.038778 0.447104 -0.004970 -0.037985 0.003515 0.035705 -0.074814 -0.032842 0.131854 -0.002987 0.253091 0.140843 0.198208 -0.070349 -0.190008 0.018483 0.211593 -0.009151 0.030287 0.010985 0.003016 0.012353 -0.000587 -0.543688 0.117674 -0.014100 -0.041137 0.211571 0.122037 -0.046308 -0.059457 -0.028264 0.319933 0.309443 0.084347 0.341779 0.076771 0.212448 0.087714 0.038169 0.058111 0.013057 -0.058059 0.014299 0.054146 0.195772 -0.017348 3.248501 -0.024157 -0.078694 0.064199 -0.000907 0.028643 0.064718 -0.149538 -0.023627 -0.134927 -0.002280 -0.102549 0.051387 0.006412 0.121934 0.065214 -0.012045 0.020032 0.073937 0.024023 0.003753 -0.018810 0.501211 0.160853 0.160646 0.045225 0.023108 0.090878 0.058886 -0.049909 0.065374 0.036682 -0.222119 0.010797 0.075091 -0.115449 0.007422 0.001113 0.077534 0.202533 -0.013112 0.098742 0.017733 -0.075427 
停做 -0.500850 0.044524 0.821476 0.478064 -0.595703 0.217694 -0.234613 -0.444570 0.453741 0.231144 0.290221 -0.324445 -0.073218 -0.154029 -0.969573 0.007521 0.617301 0.620332 0.038197 -0.192269 -1.071569 0.046648 -0.267930 -0.114270 -4.240486 -0.486267 -0.005323 -0.405557 0.157099 -1.210561 -0.920395 1.037501 0.018025 -1.338189 0.727772 -0.017687 0.470945 0.026571 0.988278 -0.068980 0.183541 -0.612170 -0.093520 0.149009 0.444642 1.857832 0.245985 0.551154 -0.166720 0.167252 0.118744 0.007104 -0.741645 0.111116 -0.061054 0.490876 0.548806 -0.571803 -0.093612 -0.727196 -0.321243 0.062629 0.562493 0.254242 4.485055 -0.368455 0.115777 0.476386 -0.286874 0.222756 0.120786 -0.790859 -0.022706 0.119328 0.506337 0.955854 -0.323395 -0.173532 0.136215 -0.292020 -0.373312 -0.310745 0.024432 -1.641167 0.299903 -0.024387 -0.110421 -0.103541 3.576720 0.298909 0.263847 0.097728 -0.179403 0.145832 -0.138695 -0.074766 0.198554 0.238131 0.001007 -0.082816 -0.663432 -0.477764 -0.471802 -1.355781 -0.209980 -0.208126 0.054836 -0.737682 0.577008 -0.251708 -0.318465 -0.416177 3.118150 0.164748 0.748924 0.810794 0.123740 -0.931399 -0.183210 -0.070342 1.283740 0.012260 0.570116 0.388068 0.904284 -1.113327 -0.015179 -0.072189 0.172547 0.468777 -0.146521 -0.229612 -0.497052 -0.400668 -0.088845 0.045593 -0.359479 -0.270617 -0.070073 0.079959 0.231373 -0.889638 0.171284 -0.488542 -0.243034 0.336463 -0.499094 0.062416 0.360020 0.326776 -0.144733 0.433334 0.386962 0.179433 -0.004720 1.522054 -0.659613 0.293562 0.618684 0.126591 -1.561509 0.196670 -0.216228 0.082068 0.022938 -0.020382 0.009902 1.020240 -0.225562 0.129976 -0.072411 0.495942 0.270685 -0.121594 -0.385274 0.047740 0.191468 -2.564570 2.147908 -0.042862 -1.927916 -0.078008 0.052783 -0.455301 -0.044717 0.913529 -0.109860 -0.665056 0.383870 -0.130229 -0.148269 0.243010 0.440424 -0.180424 0.225347 0.888385 -1.105100 0.045393 0.063780 0.104639 
天象 0.351168 -1.626027 -0.172708 -0.336342 -0.539802 -0.266989 0.066524 0.231383 -0.344119 -1.585524 1.836428 0.493175 1.568307 0.575713 0.336855 -0.526156 -0.374766 -0.098843 -0.573211 0.184937 -0.297123 0.307979 0.582537 0.012656 0.123490 -0.152008 0.015701 0.092762 0.118896 0.123653 -2.738127 -0.039063 0.576834 0.169912 -0.087127 -0.016398 -0.003707 0.119981 -0.447757 -0.746159 0.052656 -0.667497 0.008861 0.105647 0.818230 0.051291 -0.079592 -0.584505 -0.691860 0.464938 -0.158184 0.386989 -0.043102 -0.134335 -0.026919 0.556906 1.307141 -3.152586 0.062003 -0.004682 -2.471557 -0.185217 0.479476 -0.071207 -1.199358 1.120451 -0.926255 0.065826 -0.101572 -0.035189 1.903018 1.793704 -0.283442 -0.278835 -0.004037 -1.090450 -0.201238 0.078006 -0.979283 0.299450 0.218721 0.410078 -0.206266 -0.390738 0.164117 0.044891 0.419817 0.659950 0.496897 -0.002136 -0.585838 0.507170 0.328552 -0.009801 0.161006 0.203892 -0.425572 0.126666 0.246216 -0.089525 0.471635 0.774074 -0.160188 -0.083048 0.177927 0.217283 -0.387461 0.449095 0.193610 0.783136 -0.186876 0.111697 -0.777833 -0.769701 -0.034864 -0.678540 -0.418798 0.237497 -0.008900 0.362527 1.285963 0.255491 -0.705507 0.058888 -0.108711 -1.102996 0.034570 -0.000878 0.424703 -0.172406 0.504881 0.062169 0.544199 0.862981 0.047542 -0.182852 -0.092623 0.223785 -0.574356 -0.122316 1.588002 1.713399 -0.710080 -0.531559 0.128392 -0.434892 0.158544 -0.181490 -0.085859 -0.180213 0.216508 -0.206454 0.133798 0.205027 2.048963 0.353681 0.668506 -0.060853 -0.052176 0.216865 0.676059 0.022478 0.175321 0.403155 -0.154441 0.332717 0.002825 -0.883344 0.102065 0.428529 -1.017691 0.592189 -0.157189 0.085397 -0.097504 0.285775 0.233780 0.513281 0.350603 0.261765 6.639960 0.109044 -0.524480 0.274207 -0.103583 -0.001539 0.045768 1.317756 -0.608946 -0.933679 0.056868 -1.519894 0.962637 1.234710 -0.741624 -1.039399 -0.035335 0.650264 -0.225115 0.067663 
疏远 -0.030408 0.295473 0.083425 0.032934 -0.078195 -0.071315 -0.060088 -0.201184 0.040382 0.046335 -0.268320 -0.108131 -0.098766 -0.036031 -0.135562 -0.077000 0.167939 0.115186 0.035463 0.036042 -0.030970 0.132707 -0.036573 -0.121136 5.381697 0.224486 -0.127572 0.010111 -0.065417 -0.097146 0.213354 -0.064241 0.031452 -0.060344 0.089026 0.088648 0.248110 -0.005286 0.001204 0.039265 0.007043 0.090905 0.128969 -0.003836 -0.092293 -0.122975 0.046396 0.042604 -0.015386 -0.095755 0.001041 0.083470 0.078928 0.000120 -0.106726 -0.092294 -0.305292 -0.402991 -0.252218 0.037462 0.007545 -0.053007 -0.063667 0.008384 -1.820130 -0.026579 -0.009414 0.053496 -0.179680 0.054652 0.063133 -0.018042 0.052152 -0.021920 -0.051838 0.071195 0.023839 -0.208765 0.195894 0.044799 0.058780 -0.018922 0.058535 0.123091 -0.004916 0.027910 -0.060882 -0.113268 -0.197054 -0.029295 -0.037404 -0.008005 0.004500 -0.001679 -0.152687 -0.099957 0.015954 -0.040857 0.003024 0.011333 -0.026243 -0.062355 0.024632 -0.028454 -0.062278 -0.017258 -0.012090 -0.148123 -0.000818 -0.049497 -0.097540 -0.144725 0.030691 0.062892 0.036920 0.211719 0.014331 -0.026206 0.009882 -0.172972 -0.236132 0.007949 0.018678 0.039804 0.070116 0.023550 -0.062492 -0.083143 0.022768 0.010936 -0.015059 -0.041609 0.150063 0.056710 -0.035517 0.041742 0.008015 -0.024941 0.013258 0.108104 0.475916 -0.072075 0.107552 -0.212706 -0.364452 0.035970 -0.061312 -0.082865 -0.006630 0.066334 0.029067 0.022412 -0.243829 -0.028263 -0.111637 0.087993 4.351476 0.199235 0.042197 -0.061082 -0.030734 -0.058712 -0.162415 0.102253 -0.000620 -0.070395 -0.001942 0.120660 0.002130 -0.018970 -0.055461 -0.035815 0.099187 -0.000736 0.002012 0.034346 -0.055316 -0.144956 -0.067724 -0.006833 0.279178 0.090679 -0.043321 -0.076092 -0.105315 0.054817 -0.073026 -0.001048 0.060052 -0.060788 -0.006910 -0.006827 0.052951 -0.051293 -0.147589 -0.209602 0.061766 0.020265 0.008579 0.055751 
伊拉克 -0.063199 -0.115051 -0.006811 -0.223903 0.050892 0.096468 0.259929 0.084098 -0.070117 -0.014532 0.205471 0.015914 0.128502 0.048985 0.969902 -0.019363 -0.120969 0.038720 0.076800 -0.014346 -0.015703 0.046679 0.036204 0.025847 0.019485 0.242170 -0.003428 0.083396 0.014796 -0.396687 0.240723 -0.477705 0.006756 0.020951 -0.754921 0.095414 -0.170049 0.010838 -0.128903 -0.025576 -0.058107 0.146873 0.003770 0.015415 -0.007892 -0.054072 -0.055097 0.007608 0.162287 0.014840 0.094249 0.005038 -0.033118 -0.066268 0.042375 0.039739 0.128415 -0.012281 -0.130157 -0.006223 0.098769 0.129798 0.141624 -0.130413 -0.378490 0.071820 -0.063427 0.053718 0.072444 -0.033546 -0.112830 1.014779 0.005094 0.085356 -0.023702 -0.023118 -0.027181 0.009534 0.181043 0.018593 -0.076583 0.048460 -0.066477 0.017996 -0.086057 0.030508 0.053961 0.020659 -0.300898 -0.032388 -0.125227 0.125655 0.019225 -0.088153 0.023916 0.306520 -0.038679 -0.222862 -0.153035 -0.098621 0.053048 0.037307 0.100215 0.009024 -0.008558 -0.037961 -0.041119 0.582764 0.114767 0.066525 -0.220648 -0.047924 0.044584 -0.055569 0.068120 0.009249 -0.025580 0.069373 0.003914 0.309926 1.213069 -0.026372 -0.252565 -0.239262 -0.232135 0.032730 -0.015545 0.036670 0.311501 -0.016574 0.112016 0.236596 0.290298 -0.030236 0.151490 -0.108337 -0.057015 0.002674 -0.074582 -0.051371 -0.040419 -0.025867 -0.099318 -0.003729 0.015067 -0.040798 -0.047932 0.102417 -0.103423 0.030315 0.001498 -0.000991 -0.266914 0.059216 0.012692 0.042432 -0.136342 -0.115499 0.003560 0.083969 0.272114 0.004163 0.648790 0.085644 -0.017077 -0.349798 -0.060540 -0.029810 0.003454 -0.027609 -0.043603 0.019226 -0.009943 -0.018349 0.072121 0.042531 0.045217 0.195202 -0.185740 0.069781 -0.570710 0.031958 0.130296 0.031147 -0.034651 -0.020368 0.153202 0.006930 -0.054298 0.048203 -0.010464 -0.040274 -0.027071 0.379050 0.135979 0.088269 0.278396 -0.025895 -0.001286 0.119601 
味道 -0.025134 0.009932 -0.093977 -0.037234 -0.002005 -0.052130 0.067322 0.397587 -0.130356 0.061761 -0.026911 0.104837 -0.226250 -0.033086 0.156070 0.014993 -0.038515 -0.312922 0.006439 0.004768 0.053317 -0.084190 0.099730 0.052821 -0.055301 0.123430 0.032288 -0.031530 0.124725 1.348109 -0.625420 0.104181 0.020979 -0.028441 0.549895 -0.065482 -0.006274 0.025991 0.158309 -0.089645 -0.010485 -0.045828 -0.037040 -0.027688 0.073229 -0.079931 0.024075 -0.141684 -0.051479 0.009419 0.025551 -0.158001 0.025925 0.005117 0.091462 0.186506 0.036867 0.022847 0.012304 -0.003135 -0.094197 0.058827 0.026367 0.074841 -1.337534 0.073102 0.016358 -0.007323 -0.074151 -0.066462 0.205229 -0.076141 0.084115 -0.001937 0.008140 -0.018397 -0.020155 -0.006520 -0.041447 0.018972 -0.136864 -0.061077 0.047193 -0.143664 0.014327 0.191882 0.053528 0.097805 -0.490171 -0.015004 -0.056072 0.012579 0.141034 0.193272 -0.031823 -0.181628 0.000964 0.521304 -0.055574 0.025231 0.020080 0.053744 0.104782 -0.174732 0.005861 0.144157 -0.040237 0.237864 -0.313236 0.099907 -0.123436 0.074685 -0.061977 -0.006820 -0.037952 -0.232535 -0.084542 -0.095336 0.031980 -0.087537 0.088510 0.110117 0.138881 -0.239406 -0.093196 -0.163430 0.110262 -0.037530 -0.012397 -0.346718 0.049251 0.038850 -0.133564 0.136294 0.001100 -0.113524 0.307826 -0.055120 -0.023486 -0.082295 0.101999 0.126822 0.428420 -0.098216 -0.408007 0.046691 0.048532 0.009471 -0.049108 -0.120204 -0.007897 0.037719 -0.032863 -0.014842 0.275000 -0.067884 -0.831545 -0.150386 -0.038196 0.045311 0.045086 -0.087951 -0.054598 -0.217537 -0.013477 0.067170 -0.002365 0.178150 0.006908 0.060661 0.036504 0.205625 0.109858 -0.030700 0.029172 0.015612 -0.038187 0.017463 -0.072334 0.052424 0.731357 -0.060613 -0.020467 0.114833 0.054644 0.023510 0.057130 -0.031138 -0.002716 0.006200 0.014061 0.007076 0.107164 0.045552 0.090543 -0.094860 -0.064093 0.011757 -0.034374 -1.604499 
些 -0.015212 6.369442 0.527798 1.038141 0.851672 0.045710 -1.808926 -1.422657 0.629925 0.820767 -0.451748 0.614182 3.773861 1.160067 -0.858645 0.614701 0.059557 -2.864248 -1.587362 -0.188890 -0.048882 0.051517 -0.083285 -2.573825 0.106177 -0.064297 -1.952143 0.059460 0.650486 3.943804 2.738074 -0.873288 0.293984 -0.016235 0.399192 0.783542 0.307469 0.141572 -0.907287 0.013223 0.526093 0.976887 0.870491 0.046607 -1.303615 -0.969315 0.072280 0.018117 -0.379337 0.027823 0.061708 -0.087228 0.227843 0.980806 -0.011032 -0.080504 1.588297 2.769018 1.220523 0.587392 0.076843 -0.407106 -1.940337 0.059343 0.001234 -0.152657 -0.683792 0.377077 -1.235288 0.164373 -0.046476 1.717875 1.827389 0.228100 -0.024580 -0.817930 0.017341 -0.027419 0.025989 0.024362 3.785589 0.079081 0.014073 0.037976 0.016434 0.553587 0.118394 1.273095 3.295563 0.322480 0.125699 0.125383 -0.119440 -0.689979 -1.925146 -0.966071 0.052479 -1.117892 -0.014471 0.083101 -1.361831 -0.989122 -1.323014 -0.065563 -0.747562 -4.482500 -0.089423 -1.147260 -1.674834 -0.075662 0.382995 -4.399333 1.801223 0.096136 1.469775 5.111028 -0.047888 0.018180 -0.305125 -0.820511 -5.479775 0.052234 -0.158355 0.299280 0.030029 3.491952 -0.443654 -0.881052 0.113744 -0.036368 0.538499 -0.029729 2.037999 -1.961125 -2.196511 0.471172 1.764372 0.036020 0.064780 0.077865 -4.111258 -0.215687 0.006827 2.269236 -0.867225 -1.042673 0.005339 0.973445 0.016408 0.171875 -0.040000 -0.001941 -0.059184 0.824140 -0.248077 0.369830 -2.743471 4.431814 -1.085708 0.486402 1.362180 -2.121755 -3.951086 0.013177 0.429558 -1.527400 -0.360266 0.047815 -0.044825 -1.992644 -0.026203 -0.072604 -0.014957 -0.315220 -0.345829 -0.264349 -0.979573 -0.696297 -0.436381 3.713157 -1.162321 0.029110 -0.027263 -0.995805 -0.077209 -0.430024 1.033716 0.154657 -0.450819 -0.203536 0.003405 2.397644 -3.393810 -0.490338 -0.100040 -1.073769 1.803978 1.111768 0.387368 -0.043824 
非正义 -0.001287 0.003308 -0.002311 0.001403 0.001563 -0.000604 -0.000828 -0.000555 0.000906 0.002724 0.001402 0.001402 -0.002249 0.000030 0.001778 0.002456 0.002119 0.000317 0.001067 0.000640 -0.001091 -0.000978 -0.000640 0.001784 -0.000017 -0.002643 -0.001359 -0.001174 -0.000267 -0.001602 0.004991 0.001595 0.000009 -0.001057 -0.003045 -0.000750 0.000441 -0.001259 -0.001076 -0.000354 -0.001628 0.000193 0.001674 -0.001050 0.000131 0.001218 -0.002629 -0.001742 -0.001632 0.001923 -0.001760 0.002018 0.000781 -0.001725 -0.002181 0.002015 -0.004196 0.000390 -0.000633 0.000855 -0.000406 -0.000511 0.000677 -0.001257 0.006678 0.000598 0.001449 -0.000799 0.001293 0.002318 0.000407 -0.000174 0.001729 0.002240 -0.001241 -0.000666 0.002148 0.000308 0.001678 0.000512 0.000482 0.001641 -0.002336 -0.001064 -0.001960 0.001734 -0.000148 -0.003644 -0.002254 -0.002321 -0.001355 -0.000927 -0.000778 -0.001783 -0.002632 0.001598 -0.001235 -0.000569 0.002141 0.000150 0.001240 0.000709 0.001991 0.001917 -0.000146 -0.001163 -0.000896 0.000361 -0.000324 -0.000993 0.000785 0.000121 -0.002175 0.000275 -0.000047 -0.000098 0.001644 -0.001205 -0.001270 0.001619 -0.001451 0.000673 -0.000901 -0.001208 -0.000518 0.001417 -0.002410 0.001189 0.000801 -0.000151 0.000862 -0.001884 0.001232 0.001657 -0.000854 0.002153 -0.001494 -0.000457 0.002066 -0.001085 -0.001136 0.001628 0.000293 -0.000033 -0.001065 -0.001948 0.000071 0.000252 -0.001268 0.000122 0.000899 0.001271 0.001795 -0.001419 -0.000020 0.000754 0.002302 -0.000600 0.000459 0.002271 -0.000993 -0.000572 -0.001363 0.003622 0.002018 -0.002572 0.001089 0.001774 -0.002440 -0.000950 -0.002810 -0.001086 0.000548 -0.001597 0.002553 0.002592 -0.001820 0.000347 -0.000150 -0.002758 0.003173 -0.000917 0.000772 0.002700 0.000970 0.000724 0.002201 -0.001352 0.000638 0.000282 0.001222 0.002152 0.002281 -0.000587 0.001695 -0.000654 -0.001371 0.002402 -0.000102 0.001069 
变外观 0.190395 0.178685 -0.152489 -0.059947 -0.198949 -0.025623 0.056846 0.168617 -0.085937 -0.127028 0.059835 0.156070 0.093523 -0.168675 0.373898 -0.046696 -0.009538 -0.031366 0.031703 -0.006397 0.056699 0.017723 -0.001390 0.027797 0.216371 0.597904 0.122203 -0.015838 0.052954 0.535670 -0.551399 0.058411 -0.002945 -0.032514 -0.204400 0.000514 -0.089430 0.048825 -0.086649 -0.121633 -0.117016 -0.198134 -0.102922 -0.000376 0.240966 -0.133417 -0.055180 -0.102054 0.025082 -0.024997 -0.037189 0.027999 0.078842 -0.045866 0.008401 0.011965 -0.414494 -0.188573 0.374460 0.037586 -0.380291 0.145921 0.216382 -0.016272 0.459511 0.097664 -0.014200 -0.079272 0.251899 -0.106032 -0.043836 0.000715 -0.006666 -0.053809 -0.024313 0.024067 -0.119057 0.166926 0.089056 0.048762 0.166958 0.217285 -0.193169 -0.039834 -0.099535 0.433905 0.019575 -0.221212 0.159243 0.022176 0.014392 0.060777 -0.072451 0.121276 0.084868 0.233692 -0.043065 0.186075 -0.009165 0.014510 0.025647 -0.009835 -0.006057 -0.014742 -0.115073 -0.031792 -0.044626 -0.270280 -0.007338 0.176834 0.046873 -0.051934 -0.080284 -0.044836 0.064982 0.147118 0.032998 0.145150 -0.056378 0.541093 -0.117977 0.086834 0.207614 -0.068768 -0.192724 -0.920213 0.000314 0.212790 0.010635 -0.073185 0.009753 -0.004777 -0.394570 0.098203 0.020359 -0.100283 -0.044360 0.078307 -0.062900 -0.038974 -0.154116 0.164266 -0.591972 0.203882 0.162688 -0.004359 0.110581 -0.102351 -0.017270 -0.086947 0.003456 0.016127 0.013135 0.008401 0.327070 -0.031584 -0.833150 0.029394 0.040386 0.093690 0.231336 0.030995 -0.125022 0.108073 0.001506 -0.048551 -0.021597 -0.477067 0.036539 0.112195 0.098322 0.224072 -0.316619 -0.066187 -0.039790 -0.010654 0.230136 0.088198 -0.433012 -0.184232 0.833355 0.035388 0.039494 0.242995 -0.027425 -0.199696 -0.008476 0.108066 -0.078695 -0.012090 0.005420 -0.036348 -0.049046 0.236892 -0.132326 0.205758 0.419841 0.069211 -0.017034 -0.148680 
交 0.072914 1.411097 0.218893 -0.576385 -0.184251 1.588920 2.682278 0.062139 -0.459478 -0.352232 0.125157 0.151199 1.116077 0.141506 0.672404 0.229667 1.479850 0.234375 0.088668 -0.291374 0.283286 -0.068123 0.474814 -0.538299 0.615325 1.017812 1.073700 -0.044975 0.014112 0.539963 1.771069 -0.047297 0.032576 1.101166 -0.671811 -0.445918 -0.519606 0.051844 -0.008388 -0.022805 -0.230320 -0.503640 0.773403 0.083586 0.208820 0.720009 -0.308544 0.529610 0.945029 0.709116 -0.070742 0.512098 -0.443359 0.170370 -0.495439 0.262833 0.643061 0.250009 0.221994 -0.905058 -0.815158 -0.045928 -8.119337 -0.440320 -0.745193 0.147929 -0.199953 0.391635 -0.616496 -0.456868 2.264978 -1.229874 -0.171197 -0.207473 0.096778 -0.391558 -0.508280 0.821162 0.009735 -0.006480 -0.564084 1.012408 0.531594 0.248674 -0.705526 2.676983 0.306546 0.810920 0.724538 -0.411120 -0.324537 -0.411350 -0.114630 0.382692 0.090275 -2.546361 0.009720 -1.768311 0.270792 -0.447225 -0.012662 0.735665 -0.114564 1.018919 0.232585 -1.012049 -0.230468 1.131760 -2.030879 0.061772 -0.020338 0.193248 -0.139154 0.196473 0.059767 -0.626124 -0.079101 0.354910 -0.908461 1.683145 -0.276075 0.496999 0.944523 -0.126859 -0.116709 0.082863 -0.630943 0.602988 0.063035 -0.301654 0.433921 -0.833103 0.331128 0.894323 -0.382478 -0.008088 -1.062528 0.450451 0.197471 -0.120656 -0.980754 -0.937946 -0.091045 0.183831 0.035757 -1.313261 0.174319 -0.404677 0.209295 -0.221749 -0.085274 -0.429180 -1.898975 -0.402325 -0.497635 -0.240742 -4.647884 -0.185679 0.284552 0.103559 0.656832 0.433724 -0.249737 -1.077076 0.022086 0.045231 0.205790 0.014573 0.264979 0.072523 1.517899 0.807604 -0.558230 -0.227795 -0.834938 -0.090537 0.223445 1.287041 -1.316622 0.386470 -1.771545 -0.432903 0.474640 -0.016439 -0.334704 -0.524415 0.358282 -0.022458 0.318955 0.793039 0.021732 -0.519211 -0.074337 -1.188287 0.146500 -0.404306 -0.461861 0.207084 0.329459 -0.092659 
票证 -0.142284 -2.949112 -0.016404 0.120487 -0.514698 -10.084012 -0.859291 3.040006 0.772481 0.663036 -0.226636 -0.123950 0.298128 -0.156906 0.620112 -0.093941 2.260081 -0.774244 -0.200305 0.269800 -0.511137 -0.637055 -1.098277 -0.169268 -0.346849 -1.837709 -2.199666 -0.444518 0.065954 0.929545 2.180328 1.203280 -0.118342 -0.642024 0.585720 0.031794 -0.231691 0.063564 0.668074 0.213504 0.307186 0.072921 0.519193 -0.124023 -0.224779 -0.459991 0.099738 0.009404 -2.011785 0.261047 -0.170446 0.043037 0.156176 -0.017414 -0.334639 -0.106330 -0.952172 0.955714 1.113720 -0.017897 -1.210850 -0.833576 -0.196086 -0.045683 8.319927 0.131476 0.226395 -0.217613 -0.391698 -0.013294 0.616320 -4.341944 0.009281 0.042751 -0.718573 0.666388 0.173473 -0.283078 0.361007 -0.006886 0.216762 -0.140609 0.185685 0.798993 -0.165357 0.066987 -0.371702 -0.594542 -0.750686 0.149156 -0.144242 -0.334446 0.154712 -0.356744 -0.750172 -9.073916 -0.117358 -1.570651 0.234906 0.512925 -0.070117 0.470297 0.120267 0.470599 -0.224745 0.257880 0.116297 -0.119459 0.323045 -0.077362 -0.600935 -0.250640 -2.564860 -0.106515 -2.326890 0.038097 0.124847 0.023067 -2.215570 0.777879 0.314947 -0.158508 -0.326825 -0.120125 0.766830 2.113134 0.081939 -0.118128 -0.227143 -0.029872 0.412838 -1.747698 0.158893 -0.106051 -0.122292 -0.667300 -0.362120 -0.274440 1.240366 -0.269828 1.630046 0.897619 1.815246 -0.260879 0.358948 -0.007466 -0.276231 -0.930401 0.266975 1.056100 0.069968 0.150954 -1.061413 -0.233289 -1.067494 -0.984786 1.804223 1.643659 2.883916 -0.426497 1.266284 0.417165 0.448137 0.213390 -0.003857 -0.232401 -1.555341 0.107519 -0.031258 -0.177685 0.051040 -0.038124 -2.594443 -0.213512 1.269872 0.665608 -0.058326 -0.547584 1.219724 -1.013916 1.985598 -0.012678 -0.935398 -0.427196 -0.556916 0.047880 -0.135174 -0.109836 0.295630 -0.060940 -0.068323 0.182306 0.486374 0.487166 -0.016889 0.718680 -0.693671 -0.224924 0.068554 -2.318205 
佛教 -0.027007 0.895190 -0.076865 0.081672 -0.915718 -0.074621 0.473241 -1.473571 0.287292 -0.001919 -0.574266 -0.573467 0.353744 -0.464189 -0.221616 0.381294 -0.029289 0.129102 0.004224 -0.013112 0.063185 -0.143224 0.137246 0.497752 -0.126824 0.192192 -0.165063 0.019811 -0.009587 0.431095 0.449275 0.593736 -0.284710 -0.134884 0.424644 0.151005 0.037150 -0.069866 -0.125140 0.460667 0.308988 0.070970 0.708098 0.161952 -0.197705 -0.070258 -0.074468 0.461604 -0.453321 -0.174783 0.117805 0.488631 0.587921 -0.045638 -0.048873 -0.062265 -0.301405 -1.064422 -0.337109 0.111205 0.700655 0.129774 0.927251 -0.007381 0.204120 -0.196411 0.389959 0.040386 0.287384 0.087386 0.964729 -0.017006 0.457720 0.074073 -0.068695 -0.097155 0.249696 0.095248 0.901725 -0.118567 0.136027 -0.250247 0.261450 0.760736 0.068103 0.000582 -0.055936 -0.242218 0.238907 -0.208093 -0.067229 0.045241 -0.019320 -1.241194 -0.417557 0.838681 -0.250984 -0.626868 0.445577 0.422681 0.193535 -0.174105 -0.301515 -0.041659 0.080674 -0.213160 -0.097577 -0.076709 0.120159 -0.165709 -1.237713 -0.310453 1.238929 0.534295 0.109145 -0.690217 -0.038571 -0.367610 0.084059 -0.141832 -0.248401 0.069687 -1.128103 0.714952 0.297657 -0.693723 -0.294716 -0.018142 -0.932588 -0.127946 -0.042557 -0.086581 0.606414 -0.177163 -0.300346 0.141700 -0.444216 0.060828 0.093320 0.162263 -0.565208 -0.179330 0.779381 -0.492109 -0.953169 -0.119707 -0.125580 -0.531182 -0.069692 0.266583 0.014389 -0.161106 -0.176764 -0.361902 -0.319160 0.034211 -4.088757 0.974850 0.674590 -0.451658 0.029475 -0.719450 -1.531081 0.381011 -0.021353 -0.513913 -0.142432 0.260370 -0.087249 -0.212400 -0.871925 -0.076369 -0.154576 0.048292 -0.197623 0.221832 -0.024205 -0.441022 -0.104237 -0.096177 -0.271513 -0.121830 -0.164091 -0.176633 -0.413822 -0.040676 -0.569886 -0.214258 0.208616 -0.556476 -0.254619 1.141092 -0.238188 -0.920897 -0.714197 -0.301942 -0.118656 0.100002 0.273306 0.330348 
功 -0.024061 0.113825 0.397270 -0.008755 -0.112649 0.042178 0.002092 -0.237649 -0.139631 0.087370 0.117947 -0.223342 -0.118727 -0.034423 -0.063411 -0.001318 0.257366 -0.136041 -0.023112 0.017991 -0.017109 0.424235 0.024602 -0.131087 -0.059379 -0.173366 0.181412 -0.032677 -0.006442 -0.416682 -0.038370 0.523366 -0.067803 -0.150183 0.325868 0.009839 0.106862 -0.004255 0.110116 -0.135372 0.000819 -0.038266 0.010841 0.021854 -0.232826 0.046957 0.047950 0.164495 0.020556 0.044590 0.011874 -0.028643 -0.036349 0.020753 -0.012932 -0.364779 0.034413 -0.022394 0.116433 -0.021833 -0.035645 -0.101654 -0.074303 0.065128 0.138008 -0.078284 -0.026540 -0.008002 -0.090041 0.012787 -0.212218 0.004072 0.008376 -0.012447 -0.033416 -0.102776 -0.034382 -0.115886 0.051043 -0.015443 -0.013181 0.018620 -0.049460 -0.040291 0.133589 0.023316 -0.018121 -0.090664 -0.021925 0.036671 0.012299 0.004564 0.005848 -0.001603 -0.154289 -0.008083 0.017961 -0.153495 -0.045838 -0.041864 0.039552 -0.069473 0.001628 -0.043380 0.023258 -0.118814 0.025243 0.051838 -0.178949 -0.000935 0.147329 0.022400 0.088992 0.037536 0.202506 0.008647 -0.025404 0.073069 0.058363 -0.015474 -0.025067 0.017386 0.096043 -0.110260 -0.222676 0.242808 0.004007 -0.069521 -0.111885 0.014754 0.020070 0.035661 -0.170361 0.079177 0.057552 0.000655 -0.017757 -0.026436 0.005724 -0.049766 -0.073949 0.140688 -0.080927 -0.279180 -0.106171 -0.017219 -0.062590 -0.080277 0.018923 -0.017607 0.001851 0.016511 -0.043151 0.018254 -0.303385 -0.055995 -0.168327 -0.123546 0.037105 0.007266 0.031521 -0.097759 -0.096317 -0.041055 -0.007763 0.023156 0.005539 0.127029 -0.037315 0.070807 -0.146958 0.063975 0.031921 -0.003643 0.030554 -0.011150 0.005226 -0.159854 0.046678 -0.056821 -0.037192 0.047892 -0.060605 -0.030455 -0.056501 -0.011586 0.023762 -0.018321 -0.040983 -0.005310 0.032257 0.004213 0.014152 0.038628 -0.165596 -0.274549 0.054541 -0.000114 0.000394 0.178631 
翻译 -0.127846 0.334154 0.197006 -0.069940 0.317822 -0.134514 0.035614 -0.274667 0.023354 0.154572 -0.095346 -0.067833 -0.048930 0.120134 0.634060 -0.012199 0.223839 -0.556186 -0.028912 0.236549 -0.068147 0.163575 -0.038932 -0.012137 -0.213366 -0.167802 -0.032670 0.027380 -0.036702 -0.495982 0.276100 1.839924 -0.015926 -0.066564 0.249310 -0.250171 0.073849 0.007555 -0.030300 0.251184 -0.129157 0.429324 0.417488 0.154491 0.776431 -0.162381 0.016721 -0.236416 -0.109286 0.250207 -0.009320 0.078066 0.026690 -0.003595 -0.203556 -0.246085 -0.095155 0.129854 -0.214004 -0.048932 0.162052 0.071750 0.127754 -0.027887 1.715943 -0.144330 0.012657 -0.187008 0.041966 -0.003719 1.462261 -0.149017 0.197361 -0.024036 0.045152 0.108925 -0.305712 0.021626 -0.370177 -0.007941 0.059869 -0.146413 -0.293277 -0.029310 0.066986 -0.155676 -0.056665 -0.302676 0.129665 -0.038289 -0.013055 -0.137381 0.015755 -0.133907 0.357190 -0.567756 0.071784 0.478469 -0.017702 -0.230516 -0.132782 -0.025257 -0.237060 -0.207802 -0.088920 0.329921 -0.034321 -0.170068 -0.339771 -0.062248 -0.732334 -0.591120 -0.193962 -0.007781 -0.054988 0.619496 -0.091099 0.016124 0.055199 -0.319984 -0.927985 0.086509 -0.009832 0.016890 0.157327 0.149425 -0.233162 0.152517 0.061492 -0.044606 0.077439 0.033181 -0.172537 0.335088 0.162693 0.023418 -0.200866 -0.001697 0.081655 0.009948 0.003867 -1.178589 0.251861 -0.661028 -0.821611 -0.053153 -0.081625 -0.099236 0.192314 -0.031971 -0.018434 0.068432 -0.100187 -0.038178 -0.146845 -0.035913 -1.116352 -0.295412 0.008535 0.019578 0.063092 -0.140677 -0.123958 -0.264686 -0.022941 -0.096104 0.013304 0.030184 -0.085374 0.185370 0.468825 -0.025477 -0.069505 0.028624 0.003616 -0.000524 -0.091682 -0.143628 0.390610 0.040005 0.719537 0.003739 0.248538 -0.029064 0.024270 0.140052 0.084763 -0.016375 0.082943 0.200696 -0.159787 0.109691 0.529566 -0.307103 0.012983 -0.580036 -0.568782 -0.033868 -0.155670 1.232501 
人 -1.034693 -0.465958 0.771123 4.384598 -1.120911 1.946190 -2.697105 -0.162050 0.267095 9.640512 -3.103752 -3.758367 -0.720900 0.455981 7.713131 -1.787394 0.990443 0.006185 -3.502504 -1.479440 0.164356 0.436940 -0.588544 0.488989 4.491403 4.219802 -0.061936 -0.968371 0.703147 -0.933783 6.589958 -5.955496 0.031309 -1.738258 0.018215 0.061051 0.287740 1.613543 -0.001979 0.825530 0.016951 1.972484 1.884405 -1.334098 -1.442527 8.003474 -1.513753 1.236455 -0.422568 -0.298059 -0.410349 -0.113496 1.085098 -0.620343 -1.062043 -0.768245 -1.001139 -3.938727 9.485368 0.823996 1.376419 -1.171750 9.322477 -0.071753 -5.930626 -1.412251 1.774356 -2.176495 -1.139711 -0.113307 0.571628 0.199585 0.162935 2.033912 0.974402 -0.013104 0.741757 -0.325303 -10.955409 -1.200592 -2.607285 -2.082093 0.739600 -0.122948 1.988180 1.418554 0.082618 0.008773 4.175368 -0.044433 0.000926 0.297573 -0.011000 -0.575334 -3.953799 11.386103 -0.335327 12.876193 0.889963 0.658562 0.176248 3.838570 -0.702539 2.684300 -4.754819 -0.221515 -0.103314 -0.127892 -0.382123 0.036627 -0.492761 -0.516365 0.429518 0.051538 1.774394 -0.313968 0.184803 0.741948 -0.327622 -1.039018 -1.042116 -0.406117 -2.744579 1.091209 0.829707 -1.851589 -1.004755 -0.082599 -1.965219 -1.723983 0.068527 -0.428247 -12.521315 -2.105394 -0.577147 0.428426 -0.120745 1.814817 3.000099 0.562779 0.514381 6.472210 1.566862 -1.022034 2.322045 1.916761 -3.929883 -0.666049 1.010724 0.065774 -0.002245 0.326500 -1.981815 -2.377161 4.784462 0.201743 1.035856 1.952436 1.852791 3.495301 -0.445389 -1.990059 -1.855168 -4.183289 -0.306384 4.013060 -0.144213 2.001992 -0.922107 -1.067451 -1.903910 2.282824 0.322721 -0.947571 -1.546313 -4.107584 1.799899 1.667025 -0.068806 1.955808 0.502238 -2.921515 -0.071596 -0.181057 -0.833995 0.213544 -0.736448 -1.120251 -2.010088 -0.032312 -0.988828 0.323963 0.609440 -0.474251 -0.064932 -0.462436 -5.259562 -2.669696 0.126981 -13.326417 
簿册 0.082995 1.046870 -0.133919 -0.249536 0.346422 0.051103 0.353378 -0.203392 0.911034 -0.263521 0.191732 0.220918 -0.215289 0.148491 0.246275 0.110700 -0.033879 0.351466 -0.627697 0.048160 -0.005170 -0.028599 0.579851 0.390717 0.683973 0.024957 0.349198 0.124996 0.403494 0.897537 -1.800219 -0.484498 0.268677 0.341581 0.479220 0.009527 -0.102762 -0.362552 -0.162511 -0.033517 -0.800094 -0.394449 0.371343 -0.257202 -0.061635 0.482589 -0.480916 -0.080982 0.098545 -0.386894 -0.377052 0.117386 0.344061 0.138177 0.381421 -0.878683 0.105930 0.166734 -1.431758 -0.236328 -0.574330 0.588234 0.493973 -0.017176 -0.205945 0.628611 0.178173 -0.852037 1.371470 -0.001240 -0.118257 2.453285 -0.936488 1.337487 0.035399 0.645094 -0.435641 -0.661184 -0.095946 0.235554 -0.211246 1.069586 -0.006885 0.888930 1.185312 0.000069 0.233786 1.749480 -0.316011 -0.017547 0.057721 2.251770 -0.158930 -0.821810 1.170984 0.211002 -1.108882 -1.250772 0.172975 -1.331257 0.225718 0.085676 -0.624172 0.867030 1.218192 -0.396581 -0.301470 -1.456021 1.828174 0.615465 -0.330975 0.809890 -0.655384 -0.662754 -0.769957 1.022717 -0.242112 0.128919 -0.858577 1.944219 0.545961 0.800964 -0.712262 -0.200203 0.564601 0.949964 0.038296 0.472200 0.258331 -0.162292 0.011820 -0.135054 -2.028363 1.232298 -0.332934 -0.786288 0.472742 -0.067166 0.452644 -0.916199 -0.761640 0.224332 -0.224637 -0.330972 1.199028 -0.878716 1.512670 0.648779 -1.368164 -0.016671 -0.247856 0.830673 -1.301862 0.663836 0.003787 0.701041 -3.318671 1.553936 -1.303345 0.382064 0.333761 0.568427 0.013934 -1.578560 -0.132714 0.572684 0.341287 -0.842849 0.655977 -0.455216 -0.628370 2.624028 -0.427796 0.013353 -0.330505 -1.578374 -0.163622 0.588068 1.827268 0.715522 1.089893 0.325684 0.194421 0.579718 0.327222 -0.075748 0.170508 0.155975 0.105935 -0.039588 0.602236 -0.463301 0.196269 -0.960894 0.090043 -0.400139 -1.101559 0.126541 -0.070829 -0.031710 
悲哀 -0.285629 0.756466 0.325521 0.122066 -0.406893 0.105438 -0.498210 0.649971 0.719520 0.457563 0.216596 -0.006230 0.673888 -0.357196 -0.469261 -0.314574 -0.244881 1.452838 -0.589468 -0.007512 -1.312566 -0.083415 -0.066774 -0.271163 -1.215672 -0.137516 -0.436736 0.028003 -0.158198 -0.983251 0.267157 -0.672827 0.197230 -0.173722 1.055684 0.685015 -0.144533 0.038048 -0.276969 0.246109 -0.033238 0.175090 0.547280 -0.036224 -0.727196 -0.571956 0.425050 0.379827 -0.107246 -1.343070 -0.104002 0.620116 0.833044 0.389058 -0.533436 -0.634054 -0.578234 1.079116 0.357232 -0.016832 -0.081691 -0.488469 -0.676763 0.091222 2.000452 0.273836 0.158896 0.337198 -0.206791 0.467366 0.124907 -0.011711 -0.745612 -0.046373 -0.139102 0.016485 0.192113 -0.847951 0.118605 -0.229302 0.182175 -0.271161 0.804566 -0.100906 -0.002959 -0.698434 -0.503103 -0.043778 0.217594 0.075391 -0.189395 0.276922 -0.183577 -0.157287 0.456069 -0.518563 0.159952 1.282511 -0.186894 -0.033900 -0.164082 -0.276109 -0.172589 1.035010 -0.308324 -0.121882 0.035853 -0.062490 3.110939 -0.004860 -0.258810 -0.546552 0.324938 0.268226 0.016880 0.217221 0.009009 -0.046153 0.056404 -0.605452 -0.599338 -0.052619 -0.150354 0.319522 -0.178063 -0.414533 -0.351124 -0.300227 0.648883 0.041099 0.958970 -0.205583 0.532066 -0.514301 -0.474249 0.109553 0.383479 -0.245353 0.713735 0.066835 -0.157503 -0.342874 0.249245 0.149184 2.153531 0.554497 -0.499973 0.143802 -0.203888 0.484113 -0.114742 0.312467 -0.061828 -0.155547 -1.382477 0.255271 -1.776330 0.446395 0.928107 -0.193394 -0.533668 -0.075474 0.724508 0.244852 -0.121806 -0.190896 -0.131269 -0.221246 -0.081033 -0.686972 -0.701312 -0.040277 1.036342 -0.185632 0.063421 -1.052749 -0.347256 -0.219708 0.503715 0.418660 -1.358640 -0.060164 -0.149340 -0.111737 -0.128161 0.493844 -0.220776 0.000404 0.241724 -0.332041 0.125469 0.090533 1.070843 -1.807278 -0.390109 -2.073456 0.072034 -0.186712 0.504643 0.749621 
外交 0.055747 0.866204 -0.083711 -0.060456 -0.151413 0.093031 -0.071210 0.009578 0.113432 0.020240 -0.124369 0.088390 -0.177753 0.419457 0.091610 -0.022389 0.206230 -0.008236 -0.040135 -0.051764 -0.029653 0.011166 0.073057 0.004785 -0.069111 -0.220749 0.063944 0.055739 -0.011205 -0.075823 0.141491 -0.052455 0.049613 -0.093337 0.314859 0.029170 0.097611 -0.004850 0.052118 -0.057466 -0.007009 -0.070443 -0.085398 -0.030265 -0.014909 0.003498 0.057208 -0.060186 -0.051054 -0.040109 -0.007777 0.017157 0.017119 -0.012732 -0.006988 0.207576 0.883335 0.118415 -0.486380 -0.016031 0.181335 -0.043435 0.109788 -0.107155 -0.474838 0.189168 0.008243 0.022553 -0.188038 -0.003783 0.001472 1.159233 -0.011177 0.002959 0.064425 -0.058013 0.083794 -0.083948 -0.030406 0.038970 -0.011739 0.021465 -0.380422 -0.314873 -0.077922 -0.062416 -0.054385 0.340052 2.822676 -0.045091 -0.037372 0.031093 -0.031296 0.328067 -0.015436 -0.283814 0.071261 0.070855 0.082811 0.051442 -0.054572 -0.022185 0.014451 0.022909 -0.067526 0.063451 -0.028827 -0.119933 -0.040163 0.057427 -0.059787 -0.014892 -0.041708 0.122928 -0.180998 0.099576 0.050002 -0.032338 -0.004103 -0.317859 -0.203772 0.004517 0.796074 0.295227 0.198298 0.135254 -0.126422 -0.011740 0.173225 -0.023603 -0.087014 -0.006143 -0.045233 0.073811 -0.201629 0.010741 0.007484 -0.008763 0.116017 -0.144193 0.025667 -0.020830 0.132081 -0.091068 -0.214985 0.135399 -0.103383 0.061545 0.049272 0.078687 -0.124246 -0.071770 0.041087 0.006656 -0.322814 -0.851860 -0.615513 -0.167659 -0.066069 -0.114164 0.056339 -0.143318 0.207307 0.205438 -0.016223 -0.008690 -0.035975 -0.212599 -0.075102 -0.109226 -0.081450 0.051239 0.030124 -0.024407 0.012935 0.015775 -0.033181 -0.029258 0.235924 -0.070075 0.468364 -0.028277 -0.025133 -0.004227 -0.019299 0.003585 0.020638 -0.013350 -0.198804 -0.025415 0.009116 -0.090333 0.046025 -0.151420 -0.258110 0.143305 0.344653 -0.041851 0.015822 0.081947 
比率 0.019632 -0.751579 0.175831 -0.089092 -0.209300 0.288626 0.151752 0.101849 -0.378698 -0.304556 0.237428 0.123540 0.014645 0.062735 0.730427 -0.016984 0.057135 -0.002717 0.048402 -0.005432 0.220122 -0.700232 0.065853 0.180100 0.265612 0.189735 0.019672 0.059247 0.033451 0.194915 -1.103870 -0.029219 0.190911 0.285288 -0.006439 0.330910 -0.037967 0.002686 -0.074139 -0.106676 -0.059121 -0.038700 0.041016 0.037087 -0.684182 0.029212 -0.230933 0.236319 0.095536 -0.017958 0.030787 -0.074476 0.100222 -0.018153 0.115520 0.047232 0.756157 0.443731 -0.377351 0.443068 -1.430323 0.008448 0.096288 -0.104048 -0.687450 -0.110235 -0.198433 -0.074010 0.177272 -0.019556 1.653443 1.035467 -0.078552 -0.140789 -0.000367 -0.125989 0.188415 0.107228 -0.125653 0.229568 0.088073 0.258080 0.145299 0.188704 -0.013172 0.298512 0.024862 0.229756 0.316068 -0.031809 -0.110769 0.027982 0.001877 0.363802 -0.110787 0.245594 -0.070062 0.039954 -0.018914 -0.054818 0.002197 0.416506 0.058846 0.181522 0.392430 0.118062 -0.052323 0.328777 -0.563577 -0.051959 -0.272910 -0.084116 0.628896 -0.284979 -0.008070 0.028619 -0.141914 -0.341622 -0.119671 1.729913 0.044458 0.249458 0.463793 -0.227353 0.258498 0.010510 0.424949 0.022848 -0.530315 0.203208 0.315630 0.037303 -0.023308 0.132829 -0.055297 0.100205 0.282653 -0.104583 0.087036 -0.210392 -2.025346 0.023888 -0.308486 -0.073143 -0.811653 -0.048378 0.296491 0.163372 -0.205326 -0.501369 0.130518 0.045839 -0.258035 0.016686 0.842992 0.042499 -5.010288 -0.413228 0.064148 0.153035 0.195705 0.075875 0.062629 -0.057782 0.007526 -0.466748 0.033948 -0.118800 0.059020 0.083543 0.127686 0.206573 -0.353183 -0.073580 -0.086211 0.012609 -0.044688 0.193774 -0.624008 0.142337 1.402173 0.031625 0.257740 -0.120733 0.118950 -0.091798 -0.072389 0.262873 -0.077098 0.449189 -0.114968 -0.023349 -0.177656 0.261102 0.080164 0.306637 -0.125562 0.148869 0.011160 0.439670 
淡 -0.078818 -0.078088 0.142062 0.164067 0.452205 -0.001311 0.019767 0.083994 0.063110 0.134486 -0.182117 -0.142430 0.030641 -0.025310 0.044408 -0.022092 -0.016237 0.100732 -0.054736 0.052438 -0.068613 0.177405 0.058905 -0.134124 -0.232440 -0.060934 -0.215541 -0.009463 0.018608 -0.221418 -0.058100 -0.344306 -0.057682 0.005751 -0.272638 -0.056872 0.236340 0.020349 -0.064805 0.043385 0.111955 0.009254 0.078765 -0.014124 0.011827 -0.137583 -0.021575 0.035608 -0.039719 -0.063767 0.015053 -0.077315 0.020853 0.023982 0.047386 -0.021175 -0.356338 -0.689724 -0.361764 0.004336 0.011963 -0.030290 -0.095087 0.187802 0.430627 -0.134005 0.089325 0.039687 -0.021633 0.005831 -0.164113 0.053506 0.038553 -0.019454 0.020757 -0.008604 0.032466 -0.039181 0.081060 -0.043705 -0.142324 -0.133053 0.034839 0.383737 0.047311 -0.304877 0.140738 0.065543 -0.137857 -0.022243 0.105154 -0.026057 0.010271 -0.111330 -0.205518 -0.322162 0.017880 -0.228314 -0.059863 0.088513 -0.014704 -0.033850 0.048675 -0.035471 0.165476 0.039084 0.055105 -0.241212 0.023323 -0.052330 -0.195352 0.002156 0.186041 -0.016034 -0.013521 -0.135051 0.050236 -0.168990 0.016165 -0.204152 0.095054 -0.073216 -0.131913 -0.018748 -0.155864 0.873657 0.004920 -0.283443 -0.110711 -0.089941 0.133132 -0.152774 0.240444 -0.228201 -0.095191 -0.087540 -0.124235 -0.015907 0.030575 0.024960 -0.352877 0.080817 0.427970 -0.102154 -0.169409 0.110328 0.060596 0.029522 0.023251 0.134719 -0.000236 -0.003986 -0.087304 0.002434 0.040668 -0.026542 -0.100053 0.288581 -0.022375 -0.012450 0.102018 -0.019987 0.197570 0.264166 0.013102 0.042956 0.004685 0.632252 -0.044582 -0.090941 -0.158925 0.079745 0.120049 -0.012872 0.024685 -0.018830 -0.037178 -0.425078 0.033396 0.336887 -0.300362 -0.427898 -0.081003 -0.254223 -0.085283 0.012350 -0.026560 -0.068695 -0.076014 -0.007079 -0.012930 -0.112259 0.028992 0.068267 -0.029150 0.192878 0.241966 -0.139352 -0.005137 -0.521286 
亲疏 0.003154 0.363588 0.038142 0.020860 -0.048151 0.162001 -0.081485 0.169095 0.052626 -0.069743 -0.056130 -0.031510 -0.027417 0.099983 -0.147634 -0.052529 -0.435373 -0.028431 0.014134 -0.002625 -0.028681 0.029999 0.067908 0.021958 0.117779 -0.107755 -0.038668 0.089562 -0.022762 -0.104874 0.203495 0.142104 -0.015033 0.212695 -0.460469 -0.014167 0.054657 0.042082 0.023757 0.002990 0.065314 0.001410 0.055642 -0.056313 -0.157849 0.203201 -0.052176 0.005412 0.088099 -0.235009 0.020771 0.000519 -0.022813 0.009538 0.112574 0.386054 0.544921 1.234720 -0.142251 -0.092913 0.131231 -0.029377 0.196977 -0.072289 0.634327 -0.107975 0.069434 0.000094 -0.056640 0.071263 -0.129781 -0.063988 0.044333 0.087089 -0.032883 -0.027365 0.121390 -0.086394 0.019523 -0.062170 -0.439271 0.103648 0.177866 -0.144101 -0.000396 -0.064411 0.010576 -0.118273 -0.489953 0.087547 -0.059707 0.066251 -0.018802 -0.048301 0.047038 -0.069891 -0.095979 0.453636 -0.013919 0.055614 0.118088 -0.005485 0.016232 -0.063657 -0.013532 -0.249233 0.011468 -0.124823 -0.068093 -0.011034 -0.055360 0.054335 0.065772 -0.007127 0.058014 0.609375 -0.006534 0.105702 -0.000609 -0.175472 -0.090620 0.119374 -0.111710 0.063140 0.062226 -0.050610 -0.025960 -0.007467 -0.053971 0.016949 -0.060918 0.061525 0.023607 0.181980 0.242906 -0.024971 0.007966 0.050111 0.086313 -0.033581 0.127364 -0.011293 0.432270 -0.008742 0.422800 0.092826 -0.006145 0.007002 0.000893 0.032239 0.003889 -0.066384 -0.086046 0.009467 0.053444 0.019228 -0.556856 0.047317 0.019030 0.053573 -0.040172 -0.072374 -0.104616 -0.040551 -0.015524 -0.065233 -0.040824 0.044809 0.031090 -0.092829 0.079369 0.124019 -0.078657 0.101140 -0.077195 -0.075595 0.014987 0.088907 0.174510 -0.065494 0.239066 0.026933 -0.045888 0.007720 -0.025124 -0.020724 0.014487 -0.064632 -0.015610 -0.037698 0.031241 0.068897 0.179354 -0.261861 0.092485 -0.110538 0.102906 0.005079 0.023471 0.043804 
无名 0.009835 -0.129159 -0.057136 -0.044365 0.026042 0.049398 0.020675 0.142436 -0.033289 -0.031904 0.100369 0.026594 -0.056466 -0.016712 0.211069 0.014507 -0.043425 0.003518 0.008100 0.013396 -0.000851 -0.131133 0.003976 0.014779 0.043869 -0.001015 0.062255 -0.036116 -0.000415 0.473803 -0.066173 -0.095863 0.041799 -0.006423 -0.385361 -0.004245 -0.103187 -0.015502 0.010015 -0.053464 -0.002387 -0.033585 -0.121371 0.076003 0.056767 -0.105122 0.003217 -0.074886 0.102551 0.057622 -0.023971 -0.071304 -0.174427 0.014922 -0.000888 0.085588 -0.141931 -0.058507 0.139652 0.005774 -0.188566 0.025064 -0.033535 -0.012759 -0.090892 0.097084 -0.047829 0.005868 -0.012176 -0.026927 -0.255325 -0.013876 -0.006492 -0.007274 0.039273 -0.180042 -0.060545 0.029049 -0.158609 0.042763 0.027473 -0.008637 0.076686 -0.209102 -0.005393 0.011842 0.036392 -0.026285 -0.133160 0.043214 -0.007393 0.013197 0.034540 0.056239 0.142299 0.020887 -0.016885 0.260631 -0.001025 -0.005914 -0.008446 0.248223 0.023697 -0.075232 0.055661 -0.000824 -0.000196 -0.146947 0.017526 0.001799 0.221528 -0.005724 -0.149867 -0.026869 -0.006010 0.115275 -0.009769 0.091667 0.013564 -0.142354 0.303267 0.020804 -0.192321 -0.087903 -0.096803 -0.171570 0.096883 0.045778 0.003257 0.007075 -0.076695 0.015845 -0.096374 0.114852 0.018359 -0.120394 -0.008314 0.010977 -0.062872 -0.034116 0.308904 0.283138 -0.001998 0.007958 0.161348 -0.051463 -0.000263 0.003956 0.012375 -0.015609 0.002689 -0.051977 0.199855 0.007158 -0.015596 -0.003915 1.275467 -0.076912 -0.064805 0.010847 -0.009877 -0.080765 0.235568 0.028843 0.001069 -0.131511 0.045285 -0.089737 0.066432 -0.023530 0.074694 0.004570 0.007500 0.002215 0.027489 0.016461 0.003943 0.073880 -0.571799 0.063338 -0.118833 0.047375 0.050768 0.031373 0.022621 -0.011703 0.038843 0.008789 -0.044878 0.093158 0.000837 -0.096415 0.000175 0.048790 0.105260 0.273735 0.113399 -0.009666 0.010514 -0.122200 
昏迷 0.328529 0.052741 -0.217740 -0.273255 -0.466145 -0.064406 0.395899 0.424648 -0.132606 -0.083248 0.339462 0.528283 0.984162 -0.374874 0.828827 0.045168 -0.039294 0.002855 0.043868 -0.059396 0.116979 -0.214114 0.077387 0.067629 2.851688 0.003313 0.689225 -0.065149 0.314900 0.083485 0.235277 -0.056669 0.125475 -0.248766 -0.552648 0.019804 -0.564138 -0.005031 -0.060950 -0.065925 -0.176650 -0.235804 -0.284026 0.014190 0.075920 0.027321 -0.136815 -0.396426 0.252820 0.490164 0.047070 -0.274252 -0.011915 -0.088049 0.204565 0.135338 0.151843 0.502885 0.484284 -0.036728 -0.438743 0.232332 0.056996 -0.024120 -1.651881 -0.055322 -0.226613 -0.348127 0.088622 -0.187783 -0.675049 0.026207 -0.160716 0.092759 0.042473 0.594214 -0.195890 0.263832 -0.679398 0.053325 -0.090560 0.270313 -0.206200 0.356363 0.015804 2.271791 0.411536 0.481403 -1.309513 0.005344 0.028464 0.035064 -0.052602 -0.198727 0.034987 0.023161 -0.050486 0.380821 -0.055327 -0.143004 0.134485 0.495784 0.081331 0.129480 0.117050 -0.188290 0.023040 0.529866 -1.154865 0.190163 -0.225044 -0.048108 0.144522 -0.136134 0.232529 0.585905 -0.030747 0.368752 -0.113948 0.500357 0.428418 0.051785 1.001378 -0.541281 -0.507732 -0.735206 0.295314 0.243989 0.082103 0.168019 -0.101347 -0.111088 -0.507765 0.706474 0.226183 -0.072845 0.124783 0.066856 -0.130435 -0.076661 -0.239767 0.303844 0.386982 0.508385 0.252733 -0.148073 0.694778 -0.298024 0.056050 -0.237168 -0.057098 -0.090282 0.981913 0.123519 0.492239 -0.040597 1.410231 -0.330192 -0.198089 0.302746 0.487786 -0.098983 0.673221 -0.147211 0.005213 -0.398908 0.088690 -0.500793 -0.012232 0.278078 0.693256 0.287383 -0.483375 -0.005040 0.018673 0.047003 0.114226 -0.218311 1.168151 0.093305 2.091879 0.389067 -0.026591 0.602182 0.353173 -0.314757 -0.039141 0.156532 -0.417399 0.133923 -0.050172 -0.087882 0.212773 0.563007 0.122905 1.046120 -0.134380 0.136448 -0.071429 -0.927156 
背令 0.018289 0.119693 0.014439 0.020008 -0.036845 0.000858 -0.000112 -0.043893 0.041284 0.003715 -0.081949 -0.170674 0.048395 0.000562 0.035797 -0.016571 0.038459 0.037565 0.008529 -0.005701 0.000855 0.054021 0.001538 0.028574 -0.000613 -0.008642 -0.011611 0.019785 -0.012188 -0.008502 -0.024695 -0.012303 0.005906 -0.002519 0.170615 0.077566 0.104747 0.022797 -0.014806 0.026513 -0.000548 0.012305 0.004066 0.005991 0.002334 -0.050701 -0.000042 0.006410 -0.032275 -0.015313 -0.013716 -0.000450 -0.071816 0.004780 -0.001566 0.000718 0.004594 -0.003200 -0.011611 -0.002655 0.006944 -0.015625 -0.009369 0.004934 0.380394 -0.016355 -0.013788 0.021835 -0.027349 0.013221 -0.174631 -0.003012 -0.001913 -0.002302 -0.000828 -0.024091 0.050473 -0.055068 -0.007241 -0.015618 0.005892 -0.008237 -0.025185 -0.048312 -0.010078 0.021502 -0.038218 -0.016996 -0.654113 -0.011751 -0.013125 0.018039 0.008195 -0.000522 -0.049011 -0.015058 -0.009659 0.347101 -0.007911 0.022421 -0.041127 -0.021254 0.024511 0.026833 -0.060219 -0.010888 0.007348 -0.030221 0.044521 -0.000840 -0.025980 -0.011955 0.075312 0.003375 0.000994 0.025050 -0.006267 -0.008869 -0.042894 -0.126994 0.004006 -0.004710 0.014655 0.008800 -0.003309 -0.011861 -0.001498 -0.006766 0.002320 -0.012270 -0.019532 -0.000437 0.022584 -0.022251 -0.005014 0.008054 -0.083816 -0.008064 0.001413 0.029408 0.002110 0.132334 0.150853 -0.028104 -0.221713 0.027802 -0.015490 -0.002233 -0.046507 -0.012930 -0.026713 0.008395 0.132958 -0.019645 -0.032506 -0.004836 0.100367 0.014801 0.020519 -0.004595 -0.031462 0.007763 0.179346 -0.061365 -0.002541 -0.011968 -0.004717 0.019827 0.014996 -0.061821 -0.089939 -0.007967 -0.003946 -0.004721 -0.000693 -0.011659 0.000421 0.008132 0.008255 -0.018755 0.029366 0.047856 0.033304 -0.011215 0.002948 -0.032371 -0.054914 -0.000114 0.014119 -0.012491 0.007015 0.000284 0.026059 0.123927 -0.017137 -0.079536 -0.049412 -0.032409 0.014888 0.006772 
不稳 0.033936 0.600048 0.187970 0.053196 -0.179738 0.022956 -0.391879 -0.820818 0.078278 0.005040 -0.199485 -0.214780 -1.041838 -0.092120 -0.190111 -0.226197 -0.084240 -0.321281 -0.034277 -0.013526 -0.099671 -0.196592 -0.092574 -0.183191 -0.607188 -0.075518 -0.484809 0.011796 -0.056836 0.388551 0.303209 0.662927 -0.094726 0.056967 0.772851 0.150903 0.270944 0.005469 0.085725 0.053809 0.040744 -0.083078 0.202630 -0.136791 0.099461 -0.224427 0.125000 0.222267 -0.177276 -0.467038 0.015091 -0.067001 0.414572 0.023150 -0.029568 -0.134682 0.075591 -0.547059 0.234947 -0.016700 -0.014609 -0.087739 0.011791 0.045589 1.785151 -0.374872 -0.103074 0.211035 -0.208302 0.146566 0.663422 0.087368 -0.217546 0.065052 -0.022745 -0.009751 0.152183 -0.060756 0.212040 -0.099283 0.010687 -0.197963 0.124743 0.022795 0.033373 -0.239955 -0.069940 -0.134954 0.215428 -0.043882 0.184746 -0.318936 0.006196 -0.147760 -0.024522 -0.151219 0.076464 -0.613441 0.128835 0.105955 -0.105174 -0.512900 -0.075096 0.028553 -0.217971 0.158097 0.064736 0.066902 -0.016237 -0.115413 0.071097 -0.067345 0.164606 0.136890 -0.065090 -0.478240 0.114885 -0.051941 0.048306 -0.036607 -0.897341 -0.139010 -0.124532 0.241731 -0.077543 0.511442 -0.237279 -0.128279 0.033326 0.005765 -0.123898 -0.018686 0.514912 -0.392575 0.029146 0.407111 -0.142210 -0.041744 0.217462 0.065656 0.077628 0.113447 -0.390225 -0.162824 -0.291280 0.124296 -0.358331 -0.066167 0.062896 0.078589 0.024523 0.023393 -0.457882 -0.100673 -0.764415 -0.020396 -1.405041 0.233561 0.088110 -0.109529 -0.033068 -0.025122 -0.226268 0.108082 0.023489 0.064241 -0.092670 0.178700 -0.137761 -0.424601 -0.298516 0.095598 0.169877 -0.002762 0.031149 -0.007681 0.008083 -0.170466 -0.238398 -0.303964 0.005293 -0.012656 -0.038382 -0.037999 -0.087394 0.159244 -0.103784 -0.050511 0.412869 -0.195069 -0.027054 0.233751 -0.037379 0.057552 -0.029234 -0.375120 0.347098 -0.004825 -0.082484 0.695636 
问候 0.082035 -0.941696 -0.213123 -0.002781 1.262173 0.091377 -0.111882 0.687839 -0.203843 -0.210436 -0.105116 -0.392216 -0.052927 -0.049736 -0.194861 -0.135352 0.468356 -0.124135 0.081485 -0.102151 0.086660 0.438962 -0.025137 -0.113902 -0.012791 -0.374086 -0.396291 0.157038 0.039704 -0.100725 0.295918 0.340107 -0.009227 -0.124421 -0.390249 0.103135 0.078582 0.081306 -0.042933 -0.030734 -0.107161 -0.079806 -0.015619 0.027527 -0.026903 0.294284 -0.003219 0.047885 0.140334 -0.324372 0.010691 0.352064 -0.002055 0.256924 0.046940 0.057225 -0.530001 -0.908018 -0.683981 0.020344 -0.063948 -0.159351 -0.003464 -0.073773 -0.215118 -0.275524 0.010903 0.178537 -0.410152 0.028737 0.270503 0.124073 0.184769 0.045269 -0.042293 0.404021 0.107698 0.008154 0.160410 -0.113719 0.293506 -0.104302 0.313975 -0.518828 0.092647 -0.072657 -0.048524 -0.006062 -0.535535 0.050270 -0.042898 0.082001 0.032770 -0.119098 -0.011521 -1.483753 0.023748 -0.134311 0.039474 0.000874 -0.035785 -0.361212 -0.258850 0.050051 -0.153300 -0.196317 -0.054142 0.366856 0.033343 -0.080666 -0.347189 -0.163998 0.155026 0.110734 0.124843 -0.581665 0.188961 0.012782 -0.008604 1.737157 -0.463201 -0.062343 -0.007199 0.180827 0.215899 -1.242704 -0.500404 -0.036120 -0.245428 -0.001480 -0.166697 0.002884 0.202946 -0.204794 -0.117962 0.298937 -0.242175 -0.070236 0.083409 0.107062 -0.246632 -0.085709 0.236408 -0.313555 -0.824406 0.029921 -0.239516 -0.076017 0.166781 0.070003 -0.018263 0.232294 -0.375142 -0.029986 -0.750385 0.064415 2.363393 0.893061 0.007852 -0.000660 0.305043 -0.036681 0.012303 -0.098285 -0.061086 0.077219 -0.046943 0.439743 -0.083264 -0.087800 -0.198572 -0.001041 0.025952 0.010073 -0.081282 0.006477 0.055053 -0.208444 -0.827583 -0.047079 0.774186 0.020713 -0.041746 -0.053684 -0.047209 0.092244 -0.034537 0.029207 0.264948 0.012952 0.007048 0.226556 0.099963 0.061602 0.050855 -0.531531 0.544428 -0.088217 0.009008 0.648028 
没条理 -0.030418 -0.190876 0.028661 0.010290 -0.209709 -0.019526 -0.014254 -0.004587 0.015669 0.005147 -0.086627 -0.017433 -0.129843 0.008615 0.004327 -0.019965 0.001240 -0.031778 -0.049028 -0.002046 0.056628 0.091702 -0.006948 -0.016314 -0.015573 -0.092777 -0.074583 -0.038510 -0.000100 0.027142 0.053233 0.049843 -0.001257 0.035596 0.124525 -0.060711 0.018070 0.001853 0.017283 0.031850 0.018797 0.064985 -0.000864 0.004249 -0.055390 -0.136869 -0.003395 0.021861 -0.014810 -0.009088 0.021984 -0.001915 0.055086 -0.005155 -0.004663 -0.113269 -0.204179 -0.447185 -0.116607 -0.011406 0.032193 0.001770 -0.242127 0.005618 0.533416 -0.030093 -0.005755 0.089921 0.116261 -0.020070 0.282658 0.010890 0.063949 -0.018354 0.001181 -0.067447 0.023908 -0.003440 0.044185 0.000054 0.061473 -0.007039 0.076969 0.232028 0.009076 0.006924 -0.011901 -0.034120 -0.135771 -0.007621 0.032635 -0.004912 0.023870 -0.043289 0.087070 -0.176856 0.011837 -0.177076 0.003879 0.014833 -0.004880 -0.051392 0.004024 -0.064646 -0.030172 -0.001402 0.009774 -0.091974 -0.056060 -0.000619 -0.016776 -0.005264 0.029759 -0.019217 0.007273 -0.076345 0.012708 -0.029310 0.009905 -0.223051 -0.057908 -0.018231 -0.089676 -0.001391 0.162367 -0.131079 -0.001727 -0.040142 0.001304 0.005217 -0.008050 -0.010036 0.091568 -0.040575 -0.047250 -0.043599 -0.081543 0.000074 -0.030559 0.001613 0.180813 -0.041163 0.121497 -0.084622 -0.008428 0.043724 -0.034401 0.045076 0.007435 0.007803 -0.006652 0.010379 0.058475 -0.019635 -0.136184 -0.042961 -0.606730 -0.065171 -0.017576 -0.008490 -0.040527 0.000563 0.015448 0.037752 -0.000339 -0.013393 -0.006085 0.028783 -0.017980 -0.049048 -0.058897 -0.007394 -0.005173 0.009170 0.003715 0.043076 -0.014670 0.091117 0.125297 0.038730 -0.048946 -0.060588 -0.012053 -0.028361 -0.019795 0.004885 -0.058351 0.009795 0.007445 -0.025203 -0.017090 -0.014407 0.117078 -0.258449 -0.057374 -0.114077 -0.020040 -0.016746 -0.013950 -0.048226 
攻打 0.001910 -0.176438 0.016532 -0.179939 2.330250 0.007261 0.440173 -0.426021 -0.498558 -0.033954 0.296823 1.358284 -0.070672 0.467031 0.896259 0.602359 1.461623 -1.555409 -0.024242 -0.031811 0.558978 1.328892 -0.022811 -0.918535 0.021325 0.103696 0.050283 0.045632 -0.095870 -4.995103 -0.183410 -0.085521 0.142578 0.020235 1.108459 -2.649434 -0.021703 -0.030353 -0.195547 -0.038587 -0.105284 -0.298376 -0.500244 0.112246 -0.613111 1.111055 -0.243462 -2.315852 0.201837 3.109883 -0.150751 -0.860905 -0.069622 -0.052141 -0.519881 -0.037047 -1.245965 -0.190122 -0.090155 -0.018155 -0.007997 0.493825 -0.070912 -0.043052 -1.390613 0.066233 0.637706 -0.337451 0.139052 -0.237977 -3.717309 0.041331 -0.067550 -0.066902 -0.388888 -0.183963 0.006522 1.494170 -1.006930 -0.104874 -1.182200 0.672354 0.539939 0.647243 2.680466 -0.214578 0.320170 1.276758 -1.123924 0.522916 0.146655 -0.153309 -0.042417 0.517113 0.058564 0.522008 0.558619 -0.108431 -0.756585 -0.077174 0.074438 0.022881 0.161755 0.030752 0.257021 0.141519 -0.063939 0.441984 0.156830 0.064877 0.083054 -0.045559 -0.486834 -0.222390 -0.415287 -0.225854 -0.357105 0.234629 -0.055434 0.170528 1.314533 0.511683 -0.362061 -0.064181 -1.718487 -1.000182 0.142969 0.135626 0.541374 -0.052225 0.087454 1.989543 0.028093 -0.000879 0.030125 -0.200434 0.185146 0.052615 -1.812648 -0.910033 -0.248936 0.837773 -0.030417 -0.989165 -1.051210 -1.161793 0.065479 0.241220 0.050246 0.058052 -0.131431 -0.491444 -2.708098 0.827070 0.030883 -1.390498 -1.778352 0.145957 -4.625446 0.000946 0.111885 -0.319498 1.176452 -0.927803 -0.032191 0.085829 0.308786 1.171442 0.281051 1.987294 0.890634 0.071244 -1.036456 0.273903 0.044419 1.119644 0.025809 -1.801145 -0.657766 0.835313 -1.753111 0.160700 0.113974 0.032543 0.027635 0.055330 0.139642 0.417629 -1.830526 0.270855 -0.061916 -0.906195 0.059334 0.074430 -1.311143 0.781677 -0.105001 0.013188 -0.438583 0.821140 
安慰 0.027352 0.087571 -0.033736 -0.038116 0.179867 -0.020831 -0.237153 -0.095603 0.009186 0.098565 0.082107 0.004722 0.071887 -0.126194 0.251610 0.013915 0.233217 0.018249 0.042037 0.081431 -0.146021 -0.208927 0.102285 0.039988 2.306291 -0.059764 0.015722 -0.088171 -0.002547 -0.004324 0.536706 -0.511158 -0.109615 0.123554 -0.011495 -0.025564 -0.239822 -0.012452 0.047053 0.017687 0.021440 0.052438 -0.038604 -0.034287 -0.119245 0.192933 0.019718 -0.026936 -0.147746 0.124686 0.082089 -0.114576 -0.084478 -0.018373 0.051673 -0.169825 -0.069899 0.835954 0.019814 -0.005486 -0.105504 0.076344 0.108540 0.127957 -0.921138 0.110439 0.049743 -0.019479 -0.284232 -0.002915 -0.224160 0.069254 0.018145 -0.022974 -0.005103 -0.079836 -0.032733 -0.034450 -0.042843 -0.007290 0.138475 0.012862 0.122151 0.081214 0.108906 0.200383 0.071874 -0.034148 -0.253513 0.010603 0.025358 0.020315 0.086268 0.112246 0.004347 0.394745 -0.077560 0.280009 -0.052865 -0.006271 0.090863 0.041998 0.038722 0.131418 -0.083173 -0.100099 -0.030563 0.160865 0.061432 0.002820 0.058919 0.005736 0.178692 -0.077528 -0.042870 0.124114 0.039720 -0.044162 0.060943 0.197757 0.083056 0.004481 0.248448 0.054896 -0.063884 0.502429 0.041308 0.124395 0.051890 0.099884 0.138601 -0.004206 0.253423 0.002196 0.155486 0.123309 0.169641 0.000177 -0.030562 -0.025333 0.000943 0.174490 0.237213 0.082522 -0.183560 0.023288 0.008676 0.041392 -0.048407 0.038736 -0.035533 -0.104469 0.041688 -0.003279 0.241062 -0.048144 3.106793 -0.341436 0.010137 0.038872 -0.126866 0.001394 0.262055 -0.048022 -0.013050 0.003677 0.000204 -0.024511 -0.101451 0.162249 0.000322 0.008163 0.039537 0.031272 -0.024185 -0.011119 -0.024087 0.124784 -0.147380 0.152530 -0.543892 -0.161927 -0.035840 0.064789 -0.006714 0.024288 0.170200 0.050805 -0.098233 -0.103446 -0.018752 -0.017116 0.105779 0.082751 0.164540 0.531551 -0.154594 0.095385 -0.010911 -0.247576 
萨摩亚 0.000453 0.007864 -0.001932 -0.002232 0.002631 -0.001771 -0.000918 0.003982 -0.001348 -0.000897 0.001378 -0.000153 -0.000195 -0.001750 0.002967 0.000935 0.000277 0.002066 -0.002045 0.001299 0.002515 -0.002186 -0.001609 0.001752 0.000333 -0.000171 0.001734 -0.000097 -0.001003 0.003824 -0.004016 -0.000698 0.000166 0.002345 0.000778 -0.001302 -0.000012 -0.001019 -0.002844 0.001174 -0.000678 0.001285 0.001833 0.001235 0.003449 -0.000412 0.001686 0.002021 0.000248 0.001185 0.001123 -0.000110 0.000176 -0.001135 0.001454 0.001223 0.002853 0.002123 -0.001392 -0.001250 -0.001916 0.001062 0.001925 0.001955 -0.006176 -0.000716 0.000053 0.001106 0.001378 -0.001370 0.005993 0.002130 0.000572 -0.002295 0.001286 -0.002136 -0.000453 0.000107 -0.001949 -0.000534 -0.000435 -0.000160 0.002269 0.004803 -0.002424 -0.001888 0.002077 -0.001757 0.014623 0.002316 -0.000749 -0.000416 -0.000588 0.001535 -0.001351 0.004683 -0.000298 0.001147 -0.002077 -0.000838 0.000967 0.002034 -0.001074 -0.001091 0.002424 -0.001675 -0.001747 0.003260 -0.002296 -0.000263 -0.001541 -0.001832 0.000315 0.002120 0.001069 0.001483 0.000650 0.001413 0.000246 0.000206 -0.001656 -0.000051 -0.000599 0.002208 -0.001642 0.003173 0.002361 -0.000258 0.000437 -0.001291 -0.001718 -0.000783 0.002116 -0.000793 0.001518 -0.003148 -0.001371 0.002356 -0.001648 -0.002048 0.004055 -0.001729 -0.007859 -0.001278 0.000127 -0.001359 -0.001315 0.000286 -0.001103 -0.000931 0.001715 0.000326 0.001349 0.001007 -0.000238 0.000734 0.015276 -0.002604 -0.000287 0.000670 0.001358 0.002203 0.004766 0.000926 -0.002300 0.003622 0.001534 -0.003388 0.000382 0.000396 0.001389 -0.000403 -0.000256 0.001348 -0.001538 0.000528 0.001338 -0.000330 -0.006128 0.001752 -0.000991 0.000783 0.001065 0.002049 -0.001898 0.001023 -0.001376 0.000850 0.002293 0.000629 -0.000680 -0.001967 0.000859 -0.002294 -0.003595 0.000333 -0.002311 -0.002013 -0.000479 -0.003196 
糙 0.014593 -0.253265 -0.106605 -0.137419 0.030215 0.155603 0.015602 -0.130599 -0.063588 -0.154416 0.134915 0.155338 -0.017550 0.132048 -0.094415 0.024401 -0.273593 -0.022918 -0.033067 0.038625 0.021692 -0.084134 0.096431 0.095767 0.156245 0.162915 0.157678 0.027105 0.088072 0.118929 -0.016592 0.173175 0.028300 0.011980 -0.303199 0.047762 -0.113626 -0.016173 -0.033289 -0.078211 -0.026615 -0.233674 -0.028286 0.062556 0.121472 0.161072 -0.039053 -0.093669 0.012374 0.071618 0.012644 -0.032165 -0.153584 0.019358 -0.014711 0.187354 0.103632 0.834436 0.312807 0.044370 -0.148254 0.033011 0.090893 -0.075058 -4.136909 0.059939 -0.044158 -0.129855 -0.191032 -0.055708 -0.057986 0.128927 0.002839 0.037834 0.013616 0.103242 -0.094455 0.103896 -0.251882 0.034237 -0.005630 0.014098 0.070814 -0.044322 -0.022656 0.061716 0.037590 0.422076 0.795927 0.012025 -0.121115 0.103600 -0.016785 0.037161 -0.019150 0.063244 -0.016050 0.332089 -0.012901 -0.110036 0.066969 0.118896 0.022089 -0.005498 0.062984 -0.043027 -0.038140 0.034602 -0.014621 0.025760 -0.072328 0.038479 -0.187457 -0.130911 0.019931 0.042329 -0.057624 0.074537 -0.046939 0.247160 0.513688 -0.026791 0.086683 -0.123236 0.029823 0.152701 0.037403 0.072483 -0.220326 -0.005594 -0.107967 0.020580 -0.687755 0.130315 0.014770 -0.060876 0.024903 0.012188 -0.167056 -0.050308 -0.298296 0.001527 -0.154984 0.243388 0.128910 -0.071595 0.157737 0.003098 -0.012898 -0.041916 0.014487 -0.030980 0.079963 0.043675 0.357874 0.074541 2.081168 -0.260813 -0.003542 0.002553 0.228886 0.001243 0.103325 -0.126481 -0.025803 0.243448 0.025552 -0.073198 0.026704 0.167332 0.148420 -0.014376 -0.051402 -0.009744 0.006751 0.025380 0.038727 0.068426 -0.246302 0.121870 -0.107378 0.057271 0.113750 0.035331 0.039535 0.024028 0.093696 0.053800 -0.032715 0.167888 0.114124 -0.085621 -0.112590 0.325049 0.068214 0.321790 -0.190491 0.017516 0.015067 0.067380 
柔 -0.481686 1.114490 0.228193 0.264721 0.690162 -0.243065 -0.007005 -0.010840 -0.018924 0.500573 -0.387587 -0.776353 -0.245460 -0.024499 1.668891 -0.216244 0.290820 1.460844 0.124875 -0.002052 -0.688102 -0.653197 -0.058865 -0.282135 -0.595204 0.204726 -0.016549 0.188325 -0.011655 1.278075 -0.729146 0.008697 0.080649 -0.293821 0.242137 0.072011 0.603833 -0.042786 0.139021 0.093182 0.233227 0.038167 0.541507 -0.015146 -0.514272 -1.565464 0.285064 0.224975 -0.523255 -0.641828 0.200664 0.047979 0.132156 0.204669 -0.200392 -0.383642 -0.031536 -0.759603 -0.241338 0.024369 -0.380638 -0.151767 0.324862 0.439976 1.209315 -0.586019 0.000462 -0.508611 0.233507 0.089629 -1.630911 0.011644 0.449796 -0.006699 0.021908 0.218639 0.034755 -0.258649 0.242146 -0.244326 0.167852 -0.232903 -0.843949 -0.013906 -0.064704 -0.826808 -0.186890 -0.030847 -0.009455 -0.167778 0.131236 0.025601 0.000328 0.415434 -1.064425 1.309610 0.234069 -0.034784 -0.090091 0.288009 -0.267177 -0.036242 -0.011550 0.425763 -0.450500 0.105003 0.145561 -0.012433 0.832855 -0.181713 0.452695 -0.251839 -0.067201 0.228572 -0.264253 0.243529 0.245964 -0.439419 0.049114 0.949734 -0.413381 -0.171805 1.233058 0.364209 1.141136 1.148573 -0.172181 -0.146896 -0.014439 -0.161834 0.142363 -0.402979 0.387893 -0.418274 0.159662 0.260065 0.067058 0.003646 0.287112 0.091155 -2.144797 1.053752 -2.571014 -0.260279 -0.326660 0.144664 0.173420 -0.307367 0.077310 0.168212 0.319316 0.190360 -0.532734 -0.004358 -0.339215 -0.068770 2.368945 0.869097 0.128905 0.153836 0.464940 0.016131 1.500572 0.644158 -0.151718 -0.339692 -0.282429 0.514542 0.043608 -0.169988 -0.391116 0.207997 0.335611 -0.214878 0.253821 -0.535778 -0.565584 -0.418469 0.030215 -0.002583 -2.983400 -0.159681 0.185693 -0.609723 -0.223348 0.582038 -0.058412 0.476626 0.014458 -0.407406 0.245878 -0.189013 -0.209277 -0.492107 -0.249688 -0.420856 0.909734 -0.161108 0.167256 0.004954 
细心 0.273866 0.031322 0.029428 0.003690 -0.154961 2.536108 0.093258 -0.205858 0.028821 -0.663984 -0.888792 0.019658 0.054002 0.729025 1.190518 0.033188 -2.338957 0.027973 -0.189935 -0.568826 -0.489962 -0.251760 -0.651362 0.034515 -0.021578 -0.289913 -0.018314 0.184543 -0.577342 -0.029988 -0.172925 -1.825988 0.646622 1.186760 1.089908 0.155474 -0.504907 -0.516685 -0.030423 0.012540 -0.441905 0.138663 -0.739036 0.001218 0.236533 -1.199074 -0.541843 1.117194 0.360558 0.580152 -0.524439 -0.002836 0.883183 0.025947 0.015456 -1.643719 -0.920489 2.603840 -0.009810 -0.268113 0.025210 -0.024495 0.002541 -0.806794 -4.425582 0.799215 -0.988572 0.004104 -0.211987 -0.206987 -1.675584 -2.892780 -1.380697 -0.257866 -0.614940 -1.402579 0.001936 0.607539 0.010084 -0.110964 -0.405376 0.604406 -1.869172 1.499234 0.329085 -0.528012 0.405049 -0.020335 3.215550 -0.276667 -0.016023 0.073048 -0.346491 -0.086733 1.583854 -0.011610 0.032984 0.340061 0.401408 -0.295195 -0.042878 0.197450 0.566221 0.012991 0.073666 0.477343 -0.014806 0.877987 -0.145699 -0.004648 -0.488645 -0.464913 0.017873 -0.041028 0.334491 -1.073284 0.872271 0.126689 0.548013 -0.964307 1.610601 0.840510 -0.485665 -0.013042 -0.031865 1.357501 0.468933 0.012333 0.258190 0.012774 0.323960 -0.015069 0.001725 0.997830 0.628750 -1.238916 0.439591 0.006244 -0.025500 -0.433186 0.012705 -0.019330 0.043435 0.564453 0.048690 -0.679476 0.517462 0.528022 0.970838 0.130764 0.014993 -0.505448 1.633582 0.250022 -1.475774 -0.286572 5.463987 -0.001698 0.775661 0.597055 0.116365 -0.863187 -0.325951 0.037079 0.089463 0.050901 0.014445 -1.001072 0.166824 0.042640 -0.855903 -1.261868 -0.189805 0.029619 -0.255651 -1.488531 -0.186331 1.337485 -1.418940 -0.505115 0.412350 1.221096 0.112383 0.836419 0.041979 0.004526 0.717155 -0.063397 0.150563 -0.023369 -0.022815 -0.482575 -2.532874 -0.010124 1.271427 0.026983 0.023764 0.297884 0.104526 0.445842 
某 -0.056965 0.641450 -0.011568 -0.005604 0.011971 -0.002561 -0.008720 -0.369464 0.002361 0.353199 0.026472 -0.015255 0.035072 0.010575 0.023966 -0.029507 0.449919 0.012637 -0.071668 0.003023 -0.003946 -0.010439 0.014433 -0.014383 -0.042981 0.014918 -0.000215 0.012874 0.004735 -0.051014 2.705308 0.797178 0.003872 -0.113273 -0.017117 -0.001505 -0.015905 -0.001779 0.061091 -0.020252 0.026491 -0.014088 0.012571 -0.210777 0.009891 -0.007619 0.039449 0.001951 -0.011283 0.006301 0.002722 -0.001952 0.056993 0.001429 0.011577 -0.015665 -1.608961 0.021399 0.008616 0.007004 -0.020892 0.002584 -0.036457 0.047760 2.911842 -0.116450 0.043864 -0.020681 -0.244067 0.015379 -0.038556 0.005733 -0.010720 -0.003832 0.000275 -0.009573 -0.001114 -0.000586 -0.005843 -0.008831 0.031035 -0.045734 -0.020196 0.014771 -0.002619 -0.018587 0.010337 -0.678380 -1.714065 -0.006134 0.109105 0.010793 0.023439 -0.005835 -0.591453 0.012271 -0.006635 0.009824 -0.009658 0.019344 0.010385 0.025856 0.005721 0.007322 -0.188542 -0.013251 0.023086 0.024436 -0.005534 -0.012504 0.023064 -0.028805 0.385553 0.010353 0.028540 -0.015781 -0.059742 0.005858 -0.001305 0.054913 -0.843775 0.012627 0.023776 -0.011738 -0.013917 0.009950 0.011466 -0.004146 0.001151 -0.000407 0.015236 -0.002472 -0.024950 -0.058332 -0.009053 0.800922 0.012479 0.009634 0.003209 0.002827 0.002685 0.019872 -0.014994 -0.007497 -0.209620 0.009656 -0.072943 -0.368219 0.015977 0.012080 -0.002993 -0.009323 -0.178406 -0.001670 -0.117108 0.013399 -0.027799 -0.006101 0.008845 0.011914 -0.093517 0.009609 -0.451265 -0.021423 -0.002868 0.014561 -0.003095 0.345687 -0.016624 0.019235 -0.021660 0.108250 0.008234 -0.011484 0.013103 0.002725 -0.010328 -0.022459 2.379888 -0.054214 0.086544 -0.120676 -0.060025 -0.153510 0.027446 0.019192 -0.032432 -0.007890 -0.030939 -0.013238 0.015548 0.017987 0.333480 0.018290 0.022072 0.014676 -0.019967 0.005599 -0.044089 0.161877 
消闲 0.043005 -0.066888 0.091811 0.004070 -1.038474 0.003771 -0.140541 -0.198385 0.003067 -0.070078 0.162848 -0.036763 -0.262359 -0.320437 0.120388 -0.147943 0.478941 0.003830 -0.258195 -0.004141 0.297370 0.046733 -0.063738 -0.452152 0.127574 -0.458651 -0.567283 -0.320414 0.012522 -0.192442 0.222977 0.318483 -0.740488 -0.568661 -0.007572 0.239922 -0.029473 0.165843 0.611208 0.107363 0.110798 -0.025654 -0.130064 -0.562158 -0.231454 -0.097826 -0.012075 -0.024610 -0.417817 0.087224 0.059566 0.120037 -0.034849 -0.128345 -0.161865 0.103037 0.458996 -0.372130 -0.063854 0.054111 0.159389 -0.057995 -0.130928 0.049407 2.609168 -0.814211 0.144968 0.460095 -1.465594 -0.027057 0.657102 -0.228115 0.206370 -0.288223 -0.051295 0.305809 -0.111841 -0.017054 0.244409 0.029041 -0.024118 -0.249109 0.506988 -0.191675 -0.445864 -0.002558 -0.059718 -1.100836 -0.586298 -0.123709 0.122809 -0.356422 0.075669 -0.105265 -0.320400 -0.041192 0.106281 -0.049684 0.361742 0.096167 -0.157562 -0.020878 -0.945180 -0.037481 -0.417078 -0.131077 0.154082 1.137162 -1.106684 -0.191577 0.141019 0.033741 0.343085 0.210669 0.089757 -0.123430 0.240397 -0.206855 0.235946 -0.302775 -0.105108 -0.114680 0.756609 0.263069 0.026501 0.046262 -0.023092 -0.426178 -0.021923 0.015469 -0.084533 0.020931 0.431318 -0.377831 -0.069626 0.231731 -0.067535 -0.017024 0.381961 0.328755 0.886205 -0.637429 -0.515967 -0.744306 0.044550 0.937702 -0.225208 -0.190130 0.350173 0.085453 -0.043714 0.268546 0.408835 -0.212788 -0.352272 0.039656 -2.910201 0.127260 0.591460 -0.345637 -1.053019 -0.360298 -0.690771 -0.314765 -0.062592 -0.150071 -0.036456 0.096608 -0.186259 0.013044 -0.169236 -0.093858 0.038461 -0.035985 0.207459 0.487552 -0.081416 -0.141692 0.442953 -0.442709 -0.193529 -0.313807 -0.255847 -0.395883 -0.604415 0.118869 -0.573334 -0.052007 -0.278551 -0.082217 -0.216900 0.131101 0.090923 -0.102060 -0.068163 -0.139484 0.245421 -0.011452 0.301840 0.325511 
